{"learner":{"attributes":{"scikit_learn":"{\"_estimator_type\": \"classifier\"}"},"feature_names":[],"feature_types":[],"gradient_booster":{"model":{"cats":{"enc":[],"feature_segments":[],"sorted_idx":[]},"gbtree_model_param":{"num_parallel_tree":"1","num_trees":"400"},"iteration_indptr":[0,1,2,3,4,5,6,7,8,9,10,11,12,13,14,15,16,17,18,19,20,21,22,23,24,25,26,27,28,29,30,31,32,33,34,35,36,37,38,39,40,41,42,43,44,45,46,47,48,49,50,51,52,53,54,55,56,57,58,59,60,61,62,63,64,65,66,67,68,69,70,71,72,73,74,75,76,77,78,79,80,81,82,83,84,85,86,87,88,89,90,91,92,93,94,95,96,97,98,99,100,101,102,103,104,105,106,107,108,109,110,111,112,113,114,115,116,117,118,119,120,121,122,123,124,125,126,127,128,129,130,131,132,133,134,135,136,137,138,139,140,141,142,143,144,145,146,147,148,149,150,151,152,153,154,155,156,157,158,159,160,161,162,163,164,165,166,167,168,169,170,171,172,173,174,175,176,177,178,179,180,181,182,183,184,185,186,187,188,189,190,191,192,193,194,195,196,197,198,199,200,201,202,203,204,205,206,207,208,209,210,211,212,213,214,215,216,217,218,219,220,221,222,223,224,225,226,227,228,229,230,231,232,233,234,235,236,237,238,239,240,241,242,243,244,245,246,247,248,249,250,251,252,253,254,255,256,257,258,259,260,261,262,263,264,265,266,267,268,269,270,271,272,273,274,275,276,277,278,279,280,281,282,283,284,285,286,287,288,289,290,291,292,293,294,295,296,297,298,299,300,301,302,303,304,305,306,307,308,309,310,311,312,313,314,315,316,317,318,319,320,321,322,323,324,325,326,327,328,329,330,331,332,333,334,335,336,337,338,339,340,341,342,343,344,345,346,347,348,349,350,351,352,353,354,355,356,357,358,359,360,361,362,363,364,365,366,367,368,369,370,371,372,373,374,375,376,377,378,379,380,381,382,383,384,385,386,387,388,389,390,391,392,393,394,395,396,397,398,399,400],"tree_info":[0,0,0,0,0,0,0,0,0,0,0,0,0,0,0,0,0,0,0,0,0,0,0,0,0,0,0,0,0,0,0,0,0,0,0,0,0,0,0,0,0,0,0,0,0,0,0,0,0,0,0,0,0,0,0,0,0,0,0,0,0,0,0,0,0,0,0,0,0,0,0,0,0,0,0,0,0,0,0,0,0,0,0,0,0,0,0,0,0,0,0,0,0,0,0,0,0,0,0,0,0,0,0,0,0,0,0,0,0,0,0,0,0,0,0,0,0,0,0,0,0,0,0,0,0,0,0,0,0,0,0,0,0,0,0,0,0,0,0,0,0,0,0,0,0,0,0,0,0,0,0,0,0,0,0,0,0,0,0,0,0,0,0,0,0,0,0,0,0,0,0,0,0,0,0,0,0,0,0,0,0,0,0,0,0,0,0,0,0,0,0,0,0,0,0,0,0,0,0,0,0,0,0,0,0,0,0,0,0,0,0,0,0,0,0,0,0,0,0,0,0,0,0,0,0,0,0,0,0,0,0,0,0,0,0,0,0,0,0,0,0,0,0,0,0,0,0,0,0,0,0,0,0,0,0,0,0,0,0,0,0,0,0,0,0,0,0,0,0,0,0,0,0,0,0,0,0,0,0,0,0,0,0,0,0,0,0,0,0,0,0,0,0,0,0,0,0,0,0,0,0,0,0,0,0,0,0,0,0,0,0,0,0,0,0,0,0,0,0,0,0,0,0,0,0,0,0,0,0,0,0,0,0,0,0,0,0,0,0,0,0,0,0,0,0,0,0,0,0,0,0,0,0,0,0,0,0,0,0,0,0,0,0,0,0,0,0,0,0,0,0,0,0,0,0,0,0,0,0,0,0,0,0,0,0,0,0,0,0,0,0,0,0,0,0,0,0,0,0,0],"trees":[{"base_weights":[3.9469646E-3,-1.994764E0,1.3834738E0,-2.1460047E0,1.2712013E0,-8.8746214E-1,1.5932394E0,-2.3736057E0,-1.7208656E0,-8.603287E-1,1.6063962E0,6.757488E-1,-1.6010177E0,1.0677981E0,1.6238545E0,-9.666584E-2,-2.1449513E0,-2.0922473E-1,-2.268107E0,3.4886375E-2,-1.4105188E0,2.837382E-2,6.533272E-2,1.48748E-1,1.5056365E0,-1.7400743E0,6.8484294E-1,1.4360647E0,7.2404736E-1,1.6395786E0,1.3913418E0,-7.1141285E-1,-2.217031E0,-1.0754558E0,8.084068E-1,5.7616327E-2,-2.3321536E0,-8.252754E-2,-7.6466346E-1,1.1240172E0,-5.8651304E-1,1.5474544E0,2.0866172E-2,-1.9716069E0,-6.216549E-1,-2.3391093E-1,5.778729E-2,8.930352E-1,6.3217275E-2,-5.7895415E-2,9.746111E-1,1.5224077E0,6.6336036E-2,1.4971217E0,9.7153777E-1,-1.4689106E0,5.143009E-2,-2.2351894E0,-9.479789E-1,-2.1727526E0,-6.560595E-1,-1.5030171E0,9.916066E-1,-2.3473656E0,3.7363052E-2,2.5411488E-2,-6.1146453E-2,5.9609268E-2,1.2798701E-1,3.3043978E-1,-1.5067811E0,6.377976E-2,2.0866172E-2,-2.2126596E0,-1.1609435E0,1.4441162E-1,-1.422753E0,-6.920705E-2,3.4886375E-2,6.0329635E-2,-7.787151E-1,-5.568423E-2,2.369652E-1,3.6864966E-1,1.3846436E0,1.2644796E-2,1.5281711E0,1.5406699E0,6.665575E-1,-0E0,1.2499449E0,-7.5281695E-2,6.471888E-3,-2.8945193E-2,-8.978493E-2,-5.321374E-2,-6.4295E-3,-9.1400966E-2,-6.4295E-3,1.4444723E-4,-6.520734E-2,-8.379031E-2,6.471888E-3,4.704821E-2,-4.011903E-3,-9.423385E-2,-1.1171125E-2,5.3512115E-2,-5.109258E-2,-3.7745893E-2,4.081211E-2,-7.508308E-2,-1.7926691E-2,-6.1720278E-2,-9.185559E-2,-2.054515E-2,-6.8899885E-2,4.8109464E-2,-1.0115071E-2,-6.8831235E-2,2.0866172E-2,2.0866172E-2,-6.317261E-2,2.0880397E-2,-6.6892065E-2,2.011398E-2,-4.5874804E-2,5.8795214E-2,1.7072966E-2,6.141961E-2,2.7857238E-2,6.2499125E-2,1.0834245E-2,-1.9148981E-2,4.3563116E-2,-3.349852E-2,4.0832028E-2,3.2434948E-2,5.638974E-2],"categories":[],"categories_nodes":[],"categories_segments":[],"categories_sizes":[],"default_left":[0,0,0,0,0,0,0,0,0,0,0,0,0,0,0,0,0,0,0,0,0,0,0,0,0,0,0,0,0,0,0,0,0,0,0,0,0,0,0,0,0,0,0,0,0,0,0,0,0,0,0,0,0,0,0,0,0,0,0,0,0,0,0,0,0,0,0,0,0,0,0,0,0,0,0,0,0,0,0,0,0,0,0,0,0,0,0,0,0,0,0,0,0,0,0,0,0,0,0,0,0,0,0,0,0,0,0,0,0,0,0,0,0,0,0,0,0,0,0,0,0,0,0,0,0,0,0,0,0,0,0,0,0,0,0,0,0,0,0],"id":0,"left_children":[1,3,5,7,9,11,13,15,17,19,21,23,25,27,29,-1,31,33,35,-1,37,-1,-1,39,41,43,45,47,49,51,53,55,57,59,61,-1,63,-1,65,67,69,71,-1,73,75,77,-1,79,-1,81,83,85,-1,87,89,91,-1,93,95,97,99,101,103,105,-1,-1,-1,-1,107,109,111,-1,-1,113,115,117,119,-1,-1,-1,121,-1,123,125,127,-1,129,131,133,135,137,-1,-1,-1,-1,-1,-1,-1,-1,-1,-1,-1,-1,-1,-1,-1,-1,-1,-1,-1,-1,-1,-1,-1,-1,-1,-1,-1,-1,-1,-1,-1,-1,-1,-1,-1,-1,-1,-1,-1,-1,-1,-1,-1,-1,-1,-1,-1,-1],"loss_changes":[1.8553215E4,1.3600537E3,1.8979414E3,2.496543E2,8.877287E1,3.7734482E2,5.6629883E1,1.1167969E1,7.6002026E2,1.7695593E1,1.1668701E0,4.612417E1,7.50058E1,2.4540726E1,1E1,0E0,2.7043457E1,2.1737755E2,1.6378296E2,0E0,3.8274364E0,0E0,0E0,4.8204933E1,6.7798615E-1,5.520276E1,1.0214256E1,5.963135E0,2.1220795E1,4.2539062E0,8.291962E0,2.450124E1,3.6896973E0,5.956369E1,4.947589E1,0E0,3.5324463E1,0E0,1.0096088E1,1.0178036E1,3.2985336E1,8.3078E-1,0E0,3.2430847E1,2.4316948E1,1.338907E1,0E0,2.476179E1,0E0,1.104682E1,1.9590439E1,2.519043E0,0E0,5.180023E0,1.2999794E1,8.110241E0,0E0,1.8052979E0,1.3121614E0,7.5920258E0,6.3030144E1,9.091333E0,2.154139E1,1.0676025E1,0E0,0E0,0E0,0E0,1.6894672E1,1.8532091E1,6.523075E0,0E0,0E0,3.8208008E0,1.4756943E1,9.153627E0,1.2178246E1,0E0,0E0,0E0,7.9737234E0,0E0,1.3200805E1,7.507799E0,3.118927E0,0E0,1.4821777E0,4.045166E0,5.7749095E0,1.0963081E1,1.2672691E0,0E0,0E0,0E0,0E0,0E0,0E0,0E0,0E0,0E0,0E0,0E0,0E0,0E0,0E0,0E0,0E0,0E0,0E0,0E0,0E0,0E0,0E0,0E0,0E0,0E0,0E0,0E0,0E0,0E0,0E0,0E0,0E0,0E0,0E0,0E0,0E0,0E0,0E0,0E0,0E0,0E0,0E0,0E0,0E0,0E0,0E0,0E0,0E0],"parents":[2147483647,0,0,1,1,2,2,3,3,4,4,5,5,6,6,7,7,8,8,9,9,10,10,11,11,12,12,13,13,14,14,16,16,17,17,18,18,20,20,23,23,24,24,25,25,26,26,27,27,28,28,29,29,30,30,31,31,32,32,33,33,34,34,36,36,38,38,39,39,40,40,41,41,43,43,44,44,45,45,47,47,49,49,50,50,51,51,53,53,54,54,55,55,57,57,58,58,59,59,60,60,61,61,62,62,63,63,68,68,69,69,70,70,73,73,74,74,75,75,76,76,80,80,82,82,83,83,84,84,86,86,87,87,88,88,89,89,90,90],"right_children":[2,4,6,8,10,12,14,16,18,20,22,24,26,28,30,-1,32,34,36,-1,38,-1,-1,40,42,44,46,48,50,52,54,56,58,60,62,-1,64,-1,66,68,70,72,-1,74,76,78,-1,80,-1,82,84,86,-1,88,90,92,-1,94,96,98,100,102,104,106,-1,-1,-1,-1,108,110,112,-1,-1,114,116,118,120,-1,-1,-1,122,-1,124,126,128,-1,130,132,134,136,138,-1,-1,-1,-1,-1,-1,-1,-1,-1,-1,-1,-1,-1,-1,-1,-1,-1,-1,-1,-1,-1,-1,-1,-1,-1,-1,-1,-1,-1,-1,-1,-1,-1,-1,-1,-1,-1,-1,-1,-1,-1,-1,-1,-1,-1,-1,-1,-1],"split_conditions":[9.8853326E-1,9.906286E-1,1.4020935E-1,2.7711982E-1,9.9998957E-1,5.2381594E-2,2.4671997E-1,3.333333E-2,3.0708647E-1,3.3375815E-1,2.1321303E-1,6.83104E-1,2.985527E-3,7.3735766E-2,3.0708647E-1,-9.666584E-2,1.605895E-2,3.018866E-1,3.8000774E-2,3.4886375E-2,3.2817325E-1,2.837382E-2,6.533272E-2,9.9702305E-1,9.610005E-1,6.25E-2,8.911328E-3,5.4687893E-1,1.7184468E-1,1.3907735E-1,1.1E-11,1.4351521E-3,7.3333335E-1,1E0,9.933353E-1,5.7616327E-2,1E0,-8.252754E-2,7.572579E-1,3.3861555E-2,9.65E-16,4.4082526E-2,2.0866172E-2,8.514287E-2,1.91E-12,9.9401796E-1,5.778729E-2,1.23E-13,6.3217275E-2,9.9829865E-1,1.4176469E-1,3.5013795E-1,6.6336036E-2,9.766921E-1,5.32E-11,6.25E-2,5.143009E-2,2.1836953E-2,2.0346656E-2,8.790408E-1,7.077033E-1,2.9179806E-1,7.3839E-1,9.777825E-1,3.7363052E-2,2.5411488E-2,-6.1146453E-2,5.9609268E-2,9.9013513E-1,3.8588315E-2,5.32E-11,6.377976E-2,2.0866172E-2,1.02566935E-1,1.28E-16,1.2989426E-1,6.0120845E-1,-6.920705E-2,3.4886375E-2,6.0329635E-2,2.5641026E-2,-5.568423E-2,9.03885E-1,2.4284822E-1,3.45E-9,1.2644796E-2,9.610005E-1,9.999928E-1,7.826306E-2,1.8124823E-1,7.39E-10,-7.5281695E-2,6.471888E-3,-2.8945193E-2,-8.978493E-2,-5.321374E-2,-6.4295E-3,-9.1400966E-2,-6.4295E-3,1.4444723E-4,-6.520734E-2,-8.379031E-2,6.471888E-3,4.704821E-2,-4.011903E-3,-9.423385E-2,-1.1171125E-2,5.3512115E-2,-5.109258E-2,-3.7745893E-2,4.081211E-2,-7.508308E-2,-1.7926691E-2,-6.1720278E-2,-9.185559E-2,-2.054515E-2,-6.8899885E-2,4.8109464E-2,-1.0115071E-2,-6.8831235E-2,2.0866172E-2,2.0866172E-2,-6.317261E-2,2.0880397E-2,-6.6892065E-2,2.011398E-2,-4.5874804E-2,5.8795214E-2,1.7072966E-2,6.141961E-2,2.7857238E-2,6.2499125E-2,1.0834245E-2,-1.9148981E-2,4.3563116E-2,-3.349852E-2,4.0832028E-2,3.2434948E-2,5.638974E-2],"split_indices":[0,15,2,2,1,12,2,5,2,8,2,8,1,12,2,0,12,2,11,0,11,0,0,0,8,5,1,8,2,12,1,0,5,1,1,0,5,0,1,12,1,12,0,2,1,0,0,1,0,0,12,8,0,2,1,5,0,2,15,0,8,0,8,0,0,0,0,0,0,2,1,0,0,12,1,8,12,0,0,0,5,0,8,2,1,0,8,15,12,11,1,0,0,0,0,0,0,0,0,0,0,0,0,0,0,0,0,0,0,0,0,0,0,0,0,0,0,0,0,0,0,0,0,0,0,0,0,0,0,0,0,0,0,0,0,0,0,0,0],"split_type":[0,0,0,0,0,0,0,0,0,0,0,0,0,0,0,0,0,0,0,0,0,0,0,0,0,0,0,0,0,0,0,0,0,0,0,0,0,0,0,0,0,0,0,0,0,0,0,0,0,0,0,0,0,0,0,0,0,0,0,0,0,0,0,0,0,0,0,0,0,0,0,0,0,0,0,0,0,0,0,0,0,0,0,0,0,0,0,0,0,0,0,0,0,0,0,0,0,0,0,0,0,0,0,0,0,0,0,0,0,0,0,0,0,0,0,0,0,0,0,0,0,0,0,0,0,0,0,0,0,0,0,0,0,0,0,0,0,0,0],"sum_hessian":[6.726844E3,2.7467417E3,3.9801025E3,2.6255317E3,1.2120981E2,3.362401E2,3.6438623E3,1.7069081E3,9.1862384E2,1.621737E1,1.0499244E2,1.0535283E2,2.3088727E2,2.0277716E2,3.4410852E3,1.4280895E3,2.788186E2,2.4458194E2,6.740419E2,3.7239883E0,1.249338E1,3.9642456E0,1.010282E2,6.522986E1,4.012297E1,2.1791338E2,1.2973894E1,9.622305E1,1.06554115E2,3.2170452E3,2.2403993E2,1.3934924E1,2.6488367E2,1.3214153E2,1.12440414E2,1.1051836E1,6.6299005E2,5.0454035E0,7.4479766E0,2.7869846E1,3.7360012E1,3.7840527E1,2.2824445E0,1.798326E2,3.8080784E1,6.126561E0,6.847333E0,2.1863415E1,7.4359634E1,2.5947788E1,8.060632E1,4.5732977E2,2.7597156E3,1.7670924E2,4.733069E1,1.0331064E1,3.6038594E0,2.603188E2,4.564889E0,3.5317825E1,9.682369E1,7.688234E0,1.0475218E2,6.602271E2,2.762959E0,2.6428304E0,4.805146E0,1.9941357E1,7.928491E0,1.8980328E1,1.8379684E1,3.5558083E1,2.2824445E0,1.3718692E2,4.264567E1,1.9821228E1,1.8259556E1,2.402573E0,3.7239883E0,1.6097239E1,5.7661753E0,4.0843744E0,2.1863415E1,3.3395767E1,4.721056E1,2.5227017E0,4.5480707E2,1.6697882E2,9.730421E0,1.0811579E1,3.651911E1,8.168749E0,2.1623158E0,2.1623158E0,2.5815646E2,2.5227017E0,2.0421872E0,3.327564E1,2.0421872E0,5.8262398E1,3.85613E1,5.525918E0,2.1623158E0,8.9615974E1,1.513621E1,6.57344E2,2.8830876E0,4.3246317E0,3.6038597E0,6.486947E0,1.249338E1,1.2973894E1,5.4057894E0,1.7538784E1,1.1964814E2,2.0782257E1,2.1863415E1,4.925275E0,1.4895953E1,1.5977111E1,2.2824445E0,2.2824445E0,3.483731E0,1.97011E1,2.1623158E0,3.1353579E1,2.0421872E0,4.27658E1,4.4447603E0,4.498818E2,4.925275E0,1.6385548E2,3.123345E0,2.5227017E0,7.2077193E0,6.0064325E0,4.805146E0,1.1532351E1,2.498676E1],"tree_param":{"num_deleted":"0","num_feature":"45","num_nodes":"139","size_leaf_vector":"1"}},{"base_weights":[6.2961928E-3,-1.8780198E0,1.3371016E0,-2.0168285E0,1.2464775E0,-8.4036535E-1,1.548283E0,-2.2377713E0,-1.6029733E0,-1.4527136E0,1.5314354E0,7.111556E-1,-1.5147394E0,1.0439397E0,1.5810748E0,-9.118512E-2,-2.019785E0,-1.8437739E-1,-2.1270845E0,-8.063563E-2,-6.187393E-1,1.5653509E0,1.0587825E-2,6.330481E-2,2.792396E-1,-1.5992466E0,5.5950258E-2,1.4289439E0,7.92401E-1,1.5975226E0,1.3419727E0,-1.713007E0,-2.2732983E0,-2.0377142E0,2.3702434E-1,1.3578662E0,-2.1945577E0,6.2434585E-3,-5.1956322E-2,2.4590332E-2,6.366874E-2,-9.852058E-1,6.5568244E-1,-1.8063083E0,-5.419404E-1,6.2335663E-2,9.597544E-1,5.397344E-2,9.849095E-1,1.4750003E0,6.4589664E-2,1.4510392E0,9.278238E-1,-5.109969E-1,-2.0011697E0,-9.165496E-2,-2.6453173E-2,-8.809282E-2,-4.7386926E-1,-5.2977335E-1,1.0105783E0,5.918959E-2,1.9436605E-2,-2.2088099E0,3.647557E-2,4.7531966E-2,-1.5130159E0,1.1699948E0,-6.449721E-2,-2.0708368E0,-1.0013902E0,1.3663436E-1,-1.2392883E0,5.9635743E-2,2.112275E-1,-6.126117E-2,3.2960263E-1,1.4638054E0,6.4343256E-1,2.8189754E-1,1.4880089E0,1.4897331E0,4.757193E-1,-4.3183863E-2,1.1886237E0,3.890162E-2,-3.8071416E-2,-8.3040506E-2,3.53642E-2,-6.958513E-2,4.4418707E-2,-4.3301348E-2,4.2616175E-3,2.441936E-2,5.7750944E-2,-9.156473E-2,-7.4834995E-2,6.8800086E-3,-7.357031E-2,6.7650354E-3,5.43717E-2,4.7375582E-2,-2.5200684E-2,-8.482933E-2,-1.2400619E-2,-1.1551112E-2,-6.0267992E-2,3.705485E-2,-1.1283914E-2,-6.3981816E-2,6.0985596E-3,-2.8687095E-2,4.5846753E-2,5.1102817E-2,4.0295226E-3,6.083259E-2,2.7056288E-2,4.5529716E-2,9.567311E-3,4.6100996E-2,-2.9820578E-2,5.9896633E-2,3.9299272E-2,6.0424723E-2,1.0523587E-2,-4.3506618E-3,4.103637E-2,-4.377459E-2,4.1279197E-2,3.298175E-2,5.8438152E-2],"categories":[],"categories_nodes":[],"categories_segments":[],"categories_sizes":[],"default_left":[0,0,0,0,0,0,0,0,0,0,0,0,0,0,0,0,0,0,0,0,0,0,0,0,0,0,0,0,0,0,0,0,0,0,0,0,0,0,0,0,0,0,0,0,0,0,0,0,0,0,0,0,0,0,0,0,0,0,0,0,0,0,0,0,0,0,0,0,0,0,0,0,0,0,0,0,0,0,0,0,0,0,0,0,0,0,0,0,0,0,0,0,0,0,0,0,0,0,0,0,0,0,0,0,0,0,0,0,0,0,0,0,0,0,0,0,0,0,0,0,0,0,0,0,0,0,0,0,0,0,0],"id":1,"left_children":[1,3,5,7,9,11,13,15,17,19,21,23,25,27,29,-1,31,33,35,-1,37,39,-1,-1,41,43,-1,45,47,49,51,53,55,57,59,61,63,-1,-1,-1,-1,65,67,69,71,-1,73,75,77,79,-1,81,83,85,87,-1,-1,-1,89,91,93,-1,-1,95,-1,-1,97,99,101,103,105,107,109,-1,111,-1,113,115,117,119,121,123,125,127,129,-1,-1,-1,-1,-1,-1,-1,-1,-1,-1,-1,-1,-1,-1,-1,-1,-1,-1,-1,-1,-1,-1,-1,-1,-1,-1,-1,-1,-1,-1,-1,-1,-1,-1,-1,-1,-1,-1,-1,-1,-1,-1,-1,-1,-1,-1],"loss_changes":[1.6961143E4,1.2168115E3,1.8242393E3,2.411709E2,9.427985E1,3.684909E2,5.785742E1,1.0888672E1,6.95886E2,4.0818024E0,4.07547E0,3.9646793E1,6.2597534E1,2.0315826E1,1.08984375E1,0E0,1.8282715E1,1.9894218E2,1.6388013E2,0E0,3.6446579E0,1.4489136E0,0E0,0E0,3.5281124E1,5.103723E1,0E0,3.5378265E0,1.942369E1,3.9916992E0,8.575073E0,4.5686493E1,2.7260132E0,1.0833786E1,1.23781975E2,5.274849E-1,3.1866455E1,0E0,0E0,0E0,0E0,2.1387428E1,2.1219315E1,4.0006714E1,1.9488613E1,0E0,8.09754E0,1.3341717E1,1.6687782E1,5.651428E0,0E0,5.7392273E0,1.2789448E1,1.8989729E1,2.5481384E1,0E0,0E0,0E0,1.3676339E1,3.7107925E1,1.6904175E1,0E0,0E0,1.3446533E1,0E0,0E0,8.285648E0,5.918968E0,1.801186E1,1.2173096E1,1.7847542E1,7.4030685E0,1.0512556E1,0E0,9.721522E0,0E0,5.4036274E0,7.4931335E-1,1.270985E1,5.961375E0,1.7303467E-1,3.749054E0,2.8679712E0,1.4062455E1,2.4744072E0,0E0,0E0,0E0,0E0,0E0,0E0,0E0,0E0,0E0,0E0,0E0,0E0,0E0,0E0,0E0,0E0,0E0,0E0,0E0,0E0,0E0,0E0,0E0,0E0,0E0,0E0,0E0,0E0,0E0,0E0,0E0,0E0,0E0,0E0,0E0,0E0,0E0,0E0,0E0,0E0,0E0,0E0,0E0,0E0,0E0,0E0],"parents":[2147483647,0,0,1,1,2,2,3,3,4,4,5,5,6,6,7,7,8,8,9,9,10,10,11,11,12,12,13,13,14,14,16,16,17,17,18,18,20,20,21,21,24,24,25,25,27,27,28,28,29,29,30,30,31,31,32,32,33,33,34,34,35,35,36,36,41,41,42,42,43,43,44,44,46,46,47,47,48,48,49,49,51,51,52,52,53,53,54,54,58,58,59,59,60,60,63,63,66,66,67,67,68,68,69,69,70,70,71,71,72,72,74,74,76,76,77,77,78,78,79,79,80,80,81,81,82,82,83,83,84,84],"right_children":[2,4,6,8,10,12,14,16,18,20,22,24,26,28,30,-1,32,34,36,-1,38,40,-1,-1,42,44,-1,46,48,50,52,54,56,58,60,62,64,-1,-1,-1,-1,66,68,70,72,-1,74,76,78,80,-1,82,84,86,88,-1,-1,-1,90,92,94,-1,-1,96,-1,-1,98,100,102,104,106,108,110,-1,112,-1,114,116,118,120,122,124,126,128,130,-1,-1,-1,-1,-1,-1,-1,-1,-1,-1,-1,-1,-1,-1,-1,-1,-1,-1,-1,-1,-1,-1,-1,-1,-1,-1,-1,-1,-1,-1,-1,-1,-1,-1,-1,-1,-1,-1,-1,-1,-1,-1,-1,-1,-1,-1],"split_conditions":[9.8853326E-1,9.906286E-1,1.4020935E-1,2.7711982E-1,6.863487E-1,5.2381594E-2,2.5468695E-1,3.333333E-2,3.0708647E-1,9.518866E-1,7.08956E-10,9.905799E-1,8.911328E-3,5.5636756E-2,3.0708647E-1,-9.118512E-2,2.137219E-1,9.9998957E-1,3.8000774E-2,-8.063563E-2,1E0,2.1321303E-1,1.0587825E-2,6.330481E-2,3.4939345E-2,6.25E-2,5.5950258E-2,1.9607844E-2,1.7184468E-1,1.327939E-1,1.1E-11,7.6380366E-1,9.970745E-1,5.954768E-1,3.021321E-1,4.7110182E-1,1E0,6.2434585E-3,-5.1956322E-2,2.4590332E-2,6.366874E-2,1.24638565E-2,7.853401E-3,8.514287E-2,1.91E-12,6.2335663E-2,1.07E-13,6.863487E-1,8.595702E-2,2.5844595E-3,6.4589664E-2,1E0,5.32E-11,5.44238E-2,1.7179744E-1,-9.165496E-2,-2.6453173E-2,-8.809282E-2,2.0951996E-2,2.0833332E-2,3.060169E-1,5.918959E-2,1.9436605E-2,1E0,3.647557E-2,4.7531966E-2,2.4021165E-1,4.929163E-2,2.4021165E-1,2.985527E-3,1.52E-16,2.519606E-1,1.9114052E-1,5.9635743E-2,2.22E-9,-6.126117E-2,7.3735766E-2,3.86E-13,4.6320675E-17,1.08091E-1,9.9895936E-1,9.999928E-1,2.1278563E-1,1.842414E-1,4.7697386E-1,3.890162E-2,-3.8071416E-2,-8.3040506E-2,3.53642E-2,-6.958513E-2,4.4418707E-2,-4.3301348E-2,4.2616175E-3,2.441936E-2,5.7750944E-2,-9.156473E-2,-7.4834995E-2,6.8800086E-3,-7.357031E-2,6.7650354E-3,5.43717E-2,4.7375582E-2,-2.5200684E-2,-8.482933E-2,-1.2400619E-2,-1.1551112E-2,-6.0267992E-2,3.705485E-2,-1.1283914E-2,-6.3981816E-2,6.0985596E-3,-2.8687095E-2,4.5846753E-2,5.1102817E-2,4.0295226E-3,6.083259E-2,2.7056288E-2,4.5529716E-2,9.567311E-3,4.6100996E-2,-2.9820578E-2,5.9896633E-2,3.9299272E-2,6.0424723E-2,1.0523587E-2,-4.3506618E-3,4.103637E-2,-4.377459E-2,4.1279197E-2,3.298175E-2,5.8438152E-2],"split_indices":[0,15,2,2,7,12,2,5,2,13,0,0,1,12,2,0,13,1,11,0,15,2,0,0,2,5,0,5,2,12,1,11,11,0,2,7,5,0,0,0,0,12,5,2,1,0,1,7,11,5,0,2,1,12,5,0,0,0,1,5,2,0,0,7,0,0,11,2,11,1,1,12,5,0,1,0,12,1,15,12,15,15,12,11,2,0,0,0,0,0,0,0,0,0,0,0,0,0,0,0,0,0,0,0,0,0,0,0,0,0,0,0,0,0,0,0,0,0,0,0,0,0,0,0,0,0,0,0,0,0,0],"split_type":[0,0,0,0,0,0,0,0,0,0,0,0,0,0,0,0,0,0,0,0,0,0,0,0,0,0,0,0,0,0,0,0,0,0,0,0,0,0,0,0,0,0,0,0,0,0,0,0,0,0,0,0,0,0,0,0,0,0,0,0,0,0,0,0,0,0,0,0,0,0,0,0,0,0,0,0,0,0,0,0,0,0,0,0,0,0,0,0,0,0,0,0,0,0,0,0,0,0,0,0,0,0,0,0,0,0,0,0,0,0,0,0,0,0,0,0,0,0,0,0,0,0,0,0,0,0,0,0,0,0,0],"sum_hessian":[6.7617583E3,2.7986306E3,3.9631277E3,2.6799575E3,1.1867304E2,3.5007657E2,3.613051E3,1.7441619E3,9.3579565E2,1.090732E1,1.07765724E2,1.0600041E2,2.4407617E2,2.2276572E2,3.3902854E3,1.4548848E3,2.8927707E2,2.5287875E2,6.8291693E2,5.5931716E0,5.314148E0,1.04649185E2,3.1165392E0,3.416697E1,7.183344E1,2.3766792E2,6.4082427E0,8.602216E1,1.3674355E2,3.1663723E3,2.2391304E2,1.3457664E2,1.5470042E2,4.617991E1,2.0669884E2,1.2579627E1,6.703373E2,2.7756805E0,2.5384674E0,3.583038E0,1.0106615E2,1.604766E1,5.5785778E1,1.980743E2,3.959364E1,6.543445E1,2.058772E1,2.864941E1,1.0809413E2,4.015571E2,2.7648152E3,1.7506451E2,4.8848526E1,2.6627203E1,1.0794944E2,1.5250679E2,2.1936388E0,4.1354794E1,4.825115E0,1.0389607E2,1.02802765E2,1.0324788E1,2.254839E0,6.675956E2,2.7417374E0,2.8540277E0,1.3193634E1,3.2261013E1,2.3524763E1,1.4780322E2,5.0271065E1,2.0401766E1,1.9191872E1,1.13842945E1,9.203426E0,3.514374E0,2.5135036E1,4.3503788E1,6.459035E1,4.658457E0,3.9689862E2,1.6777829E2,7.286232E0,1.0437756E1,3.841077E1,5.770963E0,2.085624E1,1.05527245E2,2.422195E0,2.6628287E0,2.1622868E0,5.5307137E1,4.858894E1,5.4815697E1,4.7987064E1,5.345034E2,1.3309212E2,2.1670806E0,1.1026553E1,5.5163364E0,2.6744678E1,6.93607E0,1.6588694E1,1.4347633E2,4.326893E0,2.1591314E1,2.867975E1,6.7318535E0,1.3669913E1,1.5184015E1,4.0078564E0,4.681056E0,4.5223703E0,3.9120383E0,2.1222998E1,3.957969E1,3.924099E0,2.8114513E1,3.6475834E1,2.5083997E0,2.150057E0,3.8752756E2,9.371085E0,1.646617E2,3.116584E0,3.8339016E0,3.4523304E0,5.31574E0,5.1220155E0,1.8317255E1,2.0093517E1],"tree_param":{"num_deleted":"0","num_feature":"45","num_nodes":"131","size_leaf_vector":"1"}},{"base_weights":[6.345868E-3,-1.7821596E0,1.3004129E0,-2.0146906E0,7.026847E-1,5.8848625E-1,1.485337E0,1.3218085E0,-2.0309863E0,9.0385056E-1,-1.4956704E0,2.664038E-1,1.167251E0,3.6356726E-1,1.504411E0,5.7784785E-2,1.888096E-2,-2.0776622E0,-1.2371151E0,9.885343E-1,-1.2078886E0,-1.8842046E0,-4.605846E-1,-1.602929E0,7.145372E-1,8.935846E-1,1.5178947E0,-1.8974645E0,1.4248445E0,1.2851686E0,1.5425845E0,-2.082095E0,4.811713E-2,-8.529834E-1,-8.604623E-2,6.1545737E-2,6.459427E-1,-7.330434E-2,-2.75211E-3,-8.190363E-2,-3.616314E-2,1.7124435E-2,-4.39837E-2,-1.7186418E0,4.2139277E-2,-2.7075782E-1,9.243496E-1,3.8125345E-1,1.2759731E0,6.1579574E-2,2.358901E-2,-8.426428E-2,-1.8268982E-2,-7.184218E-3,6.10704E-2,-9.100342E-1,1.3652405E0,-3.40174E-2,1.5462147E0,-1.8395395E0,-2.1400917E0,1.0978291E0,-1.1999084E0,-5.5999897E-2,9.981682E-1,-1.7936534E0,4.278899E-2,8.1321526E-1,-1.632089E0,9.893483E-1,-8.276922E-1,-3.7862226E-1,5.570414E-1,1.338206E0,-9.344376E-3,-6.895822E-2,7.124202E-1,9.773284E-1,1.4616978E0,1.2961439E0,6.226776E-2,-8.538979E-2,-5.621612E-3,-8.766234E-2,-8.131136E-2,5.6777995E-2,-1.6463798E-2,-8.258365E-2,-3.1732522E-2,-2.6869366E-2,2.6007434E-2,4.5432642E-2,-0E0,-7.75727E-2,-4.351212E-2,-2.8790584E-2,5.1466245E-2,3.2358073E-2,-7.3907085E-2,1.8427607E-2,4.5697782E-2,4.3647833E-2,-7.498569E-2,4.068157E-2,-5.2308172E-2,2.9448906E-2,-1.8925373E-2,7.729874E-3,5.7654075E-2,4.8773758E-2,-7.7970508E-3,1.6050678E-2,4.6298455E-2,2.4741165E-2,5.904253E-2,-7.629355E-2,5.9582684E-2],"categories":[],"categories_nodes":[],"categories_segments":[],"categories_sizes":[],"default_left":[0,0,0,0,0,0,0,0,0,0,0,0,0,0,0,0,0,0,0,0,0,0,0,0,0,0,0,0,0,0,0,0,0,0,0,0,0,0,0,0,0,0,0,0,0,0,0,0,0,0,0,0,0,0,0,0,0,0,0,0,0,0,0,0,0,0,0,0,0,0,0,0,0,0,0,0,0,0,0,0,0,0,0,0,0,0,0,0,0,0,0,0,0,0,0,0,0,0,0,0,0,0,0,0,0,0,0,0,0,0,0,0,0,0,0,0,0],"id":2,"left_children":[1,3,5,7,9,11,13,15,17,19,21,23,25,27,29,-1,-1,31,33,35,37,39,41,43,45,47,49,51,53,55,57,59,-1,61,-1,-1,63,-1,-1,-1,-1,-1,-1,65,-1,67,69,71,73,-1,-1,-1,-1,-1,-1,75,77,-1,79,81,83,85,87,89,91,93,-1,95,97,99,101,103,105,107,-1,-1,109,111,113,115,-1,-1,-1,-1,-1,-1,-1,-1,-1,-1,-1,-1,-1,-1,-1,-1,-1,-1,-1,-1,-1,-1,-1,-1,-1,-1,-1,-1,-1,-1,-1,-1,-1,-1,-1,-1,-1],"loss_changes":[1.5520829E4,1.6281748E3,5.1116406E2,1.4273828E2,1.08139046E2,1.4942719E2,6.533594E1,4.9248314E-1,9.2049805E1,4.0875183E1,7.178383E0,4.3497177E2,2.5949066E1,1.2991196E2,2.3141602E1,0E0,0E0,3.776465E1,4.8736176E1,3.9128357E1,6.0629406E0,1.879921E-1,4.52061E0,3.274655E1,8.684126E1,3.144197E1,1.3694458E0,4.0062523E0,6.408928E0,8.154266E1,2.3799805E1,2.9648438E1,0E0,7.154302E1,0E0,0E0,3.3216393E1,0E0,0E0,0E0,0E0,0E0,0E0,2.2206757E1,0E0,1.1085806E2,4.0167053E1,9.786514E0,9.185318E0,0E0,0E0,0E0,0E0,0E0,0E0,2.3282272E1,1.482666E1,0E0,4.449707E0,2.370144E2,5.854492E0,8.521944E0,2.9227867E1,2.023998E1,1.2311897E1,7.3068237E0,0E0,3.1405815E1,1.9097832E1,2.6308258E1,2.7927866E1,1.942368E1,1.11954E1,1.0161819E1,0E0,0E0,3.201121E0,8.826271E0,3.1281128E0,7.095473E1,0E0,0E0,0E0,0E0,0E0,0E0,0E0,0E0,0E0,0E0,0E0,0E0,0E0,0E0,0E0,0E0,0E0,0E0,0E0,0E0,0E0,0E0,0E0,0E0,0E0,0E0,0E0,0E0,0E0,0E0,0E0,0E0,0E0,0E0,0E0,0E0,0E0],"parents":[2147483647,0,0,1,1,2,2,3,3,4,4,5,5,6,6,7,7,8,8,9,9,10,10,11,11,12,12,13,13,14,14,17,17,18,18,19,19,20,20,21,21,22,22,23,23,24,24,25,25,26,26,27,27,28,28,29,29,30,30,31,31,33,33,36,36,43,43,45,45,46,46,47,47,48,48,55,55,56,56,58,58,59,59,60,60,61,61,62,62,63,63,64,64,65,65,67,67,68,68,69,69,70,70,71,71,72,72,73,73,76,76,77,77,78,78,79,79],"right_children":[2,4,6,8,10,12,14,16,18,20,22,24,26,28,30,-1,-1,32,34,36,38,40,42,44,46,48,50,52,54,56,58,60,-1,62,-1,-1,64,-1,-1,-1,-1,-1,-1,66,-1,68,70,72,74,-1,-1,-1,-1,-1,-1,76,78,-1,80,82,84,86,88,90,92,94,-1,96,98,100,102,104,106,108,-1,-1,110,112,114,116,-1,-1,-1,-1,-1,-1,-1,-1,-1,-1,-1,-1,-1,-1,-1,-1,-1,-1,-1,-1,-1,-1,-1,-1,-1,-1,-1,-1,-1,-1,-1,-1,-1,-1,-1,-1,-1],"split_conditions":[9.8853326E-1,7.368421E-1,6E-1,1.6563619E-2,1.9829415E-2,5.882353E-2,2.2229682E-1,1.2989426E-1,6.666667E-1,7.08956E-10,8.541667E-1,4.6719316E-1,2.4999228E-1,1.412123E-1,1.4176469E-1,5.7784785E-2,1.888096E-2,1E0,1.9829415E-2,7.6380366E-1,3.6216265E-1,4.2874593E-1,3.9780143E-1,2.5225E-1,2.793296E-3,3.1969792E-1,9.886719E-1,8.266776E-2,6.303939E-1,3.5520187E-1,1.757469E-3,7.6380366E-1,4.811713E-2,7.517354E-1,-8.604623E-2,6.1545737E-2,9.964469E-1,-7.330434E-2,-2.75211E-3,-8.190363E-2,-3.616314E-2,1.7124435E-2,-4.39837E-2,2.0072909E-1,4.2139277E-2,9.0991504E-2,1.9829415E-2,2.54508E-1,1.9829415E-2,6.1579574E-2,2.358901E-2,-8.426428E-2,-1.8268982E-2,-7.184218E-3,6.10704E-2,6.25E-2,7.567568E-1,-3.40174E-2,1.0989011E-2,1E0,9.999666E-1,7.08956E-10,8.108351E-2,8.5714287E-1,1.2659976E-1,5.408163E-1,4.278899E-2,6.989368E-1,9.9702305E-1,5.628728E-1,1.7956047E-1,6.3003056E-2,3.697687E-1,1.7642169E-1,-9.344376E-3,-6.895822E-2,1.02566935E-1,9.519391E-3,3.488319E-2,5.7001984E-1,6.226776E-2,-8.538979E-2,-5.621612E-3,-8.766234E-2,-8.131136E-2,5.6777995E-2,-1.6463798E-2,-8.258365E-2,-3.1732522E-2,-2.6869366E-2,2.6007434E-2,4.5432642E-2,-0E0,-7.75727E-2,-4.351212E-2,-2.8790584E-2,5.1466245E-2,3.2358073E-2,-7.3907085E-2,1.8427607E-2,4.5697782E-2,4.3647833E-2,-7.498569E-2,4.068157E-2,-5.2308172E-2,2.9448906E-2,-1.8925373E-2,7.729874E-3,5.7654075E-2,4.8773758E-2,-7.7970508E-3,1.6050678E-2,4.6298455E-2,2.4741165E-2,5.904253E-2,-7.629355E-2,5.9582684E-2],"split_indices":[0,3,3,11,6,5,8,8,3,0,3,8,11,5,12,0,0,5,6,11,0,12,12,11,5,12,6,5,3,8,5,11,0,11,0,0,11,0,0,0,0,0,0,4,0,12,6,8,6,0,0,0,0,0,0,5,3,0,5,7,11,0,12,3,4,3,0,8,0,8,12,11,5,8,0,0,12,5,12,8,0,0,0,0,0,0,0,0,0,0,0,0,0,0,0,0,0,0,0,0,0,0,0,0,0,0,0,0,0,0,0,0,0,0,0,0,0],"split_type":[0,0,0,0,0,0,0,0,0,0,0,0,0,0,0,0,0,0,0,0,0,0,0,0,0,0,0,0,0,0,0,0,0,0,0,0,0,0,0,0,0,0,0,0,0,0,0,0,0,0,0,0,0,0,0,0,0,0,0,0,0,0,0,0,0,0,0,0,0,0,0,0,0,0,0,0,0,0,0,0,0,0,0,0,0,0,0,0,0,0,0,0,0,0,0,0,0,0,0,0,0,0,0,0,0,0,0,0,0,0,0,0,0,0,0,0,0],"sum_hessian":[6.704087E3,2.8141917E3,3.8898953E3,2.5735857E3,2.40606E2,8.030424E2,3.0868528E3,1.20893545E1,2.5614963E3,2.2101576E2,1.959024E1,5.1697754E2,2.8606485E2,5.203243E1,3.0348203E3,9.8484E0,2.2409554E0,2.4176096E3,1.4388673E2,2.1305133E2,7.9644227E0,1.35769825E1,6.013259E0,9.9427605E1,4.1754996E2,1.6282144E2,1.232434E2,1.6339432E1,3.5692997E1,4.5557925E2,2.5792412E3,2.4147424E3,2.8670616E0,1.02748566E2,4.1138165E1,8.031084E1,1.3274051E2,4.6936226E0,3.2708004E0,1.0616143E1,2.9608388E0,2.5878174E0,3.4254417E0,9.56517E1,3.7759037E0,7.3170166E1,3.443798E2,7.0552475E1,9.226897E1,1.1969228E2,3.551118E0,1.3804016E1,2.535415E0,2.0276933E0,3.3665302E1,1.5624083E1,4.3995517E2,3.5117302E0,2.5757295E3,4.726123E2,1.9421301E3,1.5143216E1,8.760535E1,4.4538265E1,8.820224E1,9.3528244E1,2.1234612E0,4.091799E1,3.225217E1,3.325355E2,1.1844288E1,1.29314E1,5.762108E1,8.878841E1,3.4805622E0,1.0403921E1,5.220162E0,9.003604E1,3.4991913E2,1.0899399E2,2.4667354E3,4.0238208E2,7.023023E1,1.2988295E3,6.433006E2,1.258708E1,2.5561357E0,2.6636122E1,6.096923E1,2.3894592E1,2.0643671E1,7.743527E1,1.0766971E1,7.596284E1,1.7565405E1,9.48252E0,3.1435472E1,2.3563035E0,2.9895868E1,7.572188E1,2.5681363E2,4.132435E0,7.7118526E0,5.087174E0,7.8442264E0,4.9409554E1,8.211525E0,7.6552377E0,8.113316E1,3.1991754E0,2.0209868E0,2.2348562E1,6.7687485E1,6.7164955E0,3.4320264E2,5.6722374E0,1.0332175E2],"tree_param":{"num_deleted":"0","num_feature":"45","num_nodes":"117","size_leaf_vector":"1"}},{"base_weights":[8.473416E-4,-1.710387E0,1.2637868E0,-1.9296788E0,6.67199E-1,-8.1685245E-1,1.4708602E0,1.2459933E0,-1.9427508E0,-1.4961526E0,1.0492592E0,6.455682E-1,-1.4388216E0,9.213371E-1,1.502996E0,5.5275787E-2,1.7976409E-2,-1.9901503E0,-1.349333E0,-1.8541936E0,2.0730592E-1,1.1663915E0,-8.614604E-1,6.064164E-2,2.7503854E-1,-1.5139115E0,5.3501E-2,1.2942536E0,5.9126E-1,1.5209066E0,1.2466147E0,-1.9943894E0,3.8194094E-2,-8.087734E-2,-4.2524764E-1,-2.5918428E-2,-1.9214163E0,5.1596787E-2,-5.8936458E-2,3.3447564E-1,1.3209674E0,-1.1292151E0,9.062296E-3,-8.341349E-1,5.951855E-1,-1.6244217E0,1.8697597E-1,1.3559194E0,1.5444924E-1,-3.6431727E-1,1.1037303E0,1.3930532E0,1.5407437E0,1.3798419E0,7.571687E-1,-1.790529E0,-2.0435674E0,-1.7800128E0,7.72446E-1,-3.5262823E-2,-8.022555E-2,-3.677879E-1,9.714372E-1,6.1471753E-2,1.1435317E0,-1.3445143E0,-1.0132812E-2,-7.112054E-2,5.290298E-1,1.06663E0,-4.362659E-2,-1.6673216E0,4.10464E-2,5.1427573E-2,-2.9271558E-1,1.4443605E0,9.7105116E-1,-3.3435896E-2,4.450403E-2,-6.253446E-1,4.5880407E-2,1.1182374E-1,1.2213926E0,2.9186672E-1,1.4114459E0,1.0186459E0,6.1701402E-2,1.4281355E0,5.1034427E-1,1.5603404E-3,1.156969E0,-8.136694E-2,-9.6834935E-3,-8.35657E-2,-7.78416E-2,-1.60099E-2,-8.0048405E-2,-1.9075077E-2,4.147082E-2,4.453034E-2,-3.105167E-2,1.6409282E-2,5.9890196E-2,1.8372089E-2,5.3756103E-2,-2.5805077E-2,-6.801545E-2,4.9525145E-2,-1.3852121E-2,-0E0,5.082563E-2,4.9552716E-2,-2.0954898E-2,-7.8034274E-2,-5.149156E-2,-3.5851467E-2,2.684471E-2,6.097237E-2,2.6001746E-2,5.3850047E-2,-4.024821E-2,3.8195928E-3,-4.591077E-2,-2.0161988E-2,3.7541013E-2,5.1586494E-2,-8.661516E-3,5.0553396E-2,-4.6570957E-2,1.6483473E-2,5.6926515E-2,5.58816E-2,-1.800041E-2,2.2579337E-2,5.7515506E-2,-3.0257497E-2,3.7059426E-2,-3.9581873E-2,4.725172E-2,5.7336688E-2,2.9488998E-2],"categories":[],"categories_nodes":[],"categories_segments":[],"categories_sizes":[],"default_left":[0,0,0,0,0,0,0,0,0,0,0,0,0,0,0,0,0,0,0,0,0,0,0,0,0,0,0,0,0,0,0,0,0,0,0,0,0,0,0,0,0,0,0,0,0,0,0,0,0,0,0,0,0,0,0,0,0,0,0,0,0,0,0,0,0,0,0,0,0,0,0,0,0,0,0,0,0,0,0,0,0,0,0,0,0,0,0,0,0,0,0,0,0,0,0,0,0,0,0,0,0,0,0,0,0,0,0,0,0,0,0,0,0,0,0,0,0,0,0,0,0,0,0,0,0,0,0,0,0,0,0,0,0,0,0,0,0,0,0,0,0],"id":3,"left_children":[1,3,5,7,9,11,13,15,17,19,21,23,25,27,29,-1,-1,31,33,35,37,39,41,-1,43,45,-1,47,49,51,53,55,-1,-1,57,-1,59,-1,-1,61,63,65,-1,67,69,71,73,75,77,79,81,83,85,87,89,91,93,95,97,-1,-1,99,101,-1,103,105,-1,-1,107,109,111,113,-1,-1,115,117,119,-1,-1,121,-1,123,125,127,129,131,-1,133,135,137,139,-1,-1,-1,-1,-1,-1,-1,-1,-1,-1,-1,-1,-1,-1,-1,-1,-1,-1,-1,-1,-1,-1,-1,-1,-1,-1,-1,-1,-1,-1,-1,-1,-1,-1,-1,-1,-1,-1,-1,-1,-1,-1,-1,-1,-1,-1,-1,-1,-1,-1],"loss_changes":[1.4387082E4,1.4752598E3,1.6515186E3,1.0993945E2,1.9940567E2,3.169035E2,5.989746E1,4.0709114E-1,6.949902E1,2.2693573E1,4.6714966E1,3.303599E1,5.2915497E1,2.3078415E1,1.2934082E1,0E0,0E0,3.1786133E1,1.1945163E2,9.429016E-1,1.4904677E1,2.4184021E1,3.9337912E0,0E0,2.6907064E1,4.5202393E1,0E0,6.013687E0,5.2165226E1,5.3461914E0,1.3134247E1,1.9839844E1,0E0,0E0,1.3620892E2,0E0,3.9292145E-1,0E0,0E0,1.4574642E1,4.183777E0,1.4087877E0,0E0,2.2965189E1,1.7743513E1,2.721582E1,8.575119E0,1.2771301E0,6.5242786E0,1.5470608E1,7.7856216E0,7.994446E0,6.489258E-1,6.3048096E0,1.4866804E1,1.7714038E2,4.027832E0,1.0954681E1,1.5321747E1,0E0,0E0,1.0331342E1,4.1954527E0,0E0,1.1972656E1,6.1049557E-1,0E0,0E0,5.291697E0,7.4013863E0,1.639243E1,2.0933899E1,0E0,0E0,7.284137E0,3.0796356E0,1.5706024E1,0E0,0E0,1.2531412E1,0E0,4.849421E0,6.4249725E0,1.3238095E1,4.1029053E0,7.4967184E0,0E0,3.55896E-1,6.369952E0,2.2528555E1,2.480091E0,0E0,0E0,0E0,0E0,0E0,0E0,0E0,0E0,0E0,0E0,0E0,0E0,0E0,0E0,0E0,0E0,0E0,0E0,0E0,0E0,0E0,0E0,0E0,0E0,0E0,0E0,0E0,0E0,0E0,0E0,0E0,0E0,0E0,0E0,0E0,0E0,0E0,0E0,0E0,0E0,0E0,0E0,0E0,0E0,0E0,0E0,0E0,0E0,0E0,0E0],"parents":[2147483647,0,0,1,1,2,2,3,3,4,4,5,5,6,6,7,7,8,8,9,9,10,10,11,11,12,12,13,13,14,14,17,17,18,18,19,19,20,20,21,21,22,22,24,24,25,25,27,27,28,28,29,29,30,30,31,31,34,34,36,36,39,39,40,40,41,41,43,43,44,44,45,45,46,46,47,47,48,48,49,49,50,50,51,51,52,52,53,53,54,54,55,55,56,56,57,57,58,58,61,61,62,62,64,64,65,65,68,68,69,69,70,70,71,71,74,74,75,75,76,76,79,79,81,81,82,82,83,83,84,84,85,85,87,87,88,88,89,89,90,90],"right_children":[2,4,6,8,10,12,14,16,18,20,22,24,26,28,30,-1,-1,32,34,36,38,40,42,-1,44,46,-1,48,50,52,54,56,-1,-1,58,-1,60,-1,-1,62,64,66,-1,68,70,72,74,76,78,80,82,84,86,88,90,92,94,96,98,-1,-1,100,102,-1,104,106,-1,-1,108,110,112,114,-1,-1,116,118,120,-1,-1,122,-1,124,126,128,130,132,-1,134,136,138,140,-1,-1,-1,-1,-1,-1,-1,-1,-1,-1,-1,-1,-1,-1,-1,-1,-1,-1,-1,-1,-1,-1,-1,-1,-1,-1,-1,-1,-1,-1,-1,-1,-1,-1,-1,-1,-1,-1,-1,-1,-1,-1,-1,-1,-1,-1,-1,-1,-1,-1],"split_conditions":[9.8853326E-1,7.368421E-1,1.4020935E-1,1.6563619E-2,2.3546705E-1,5.2381594E-2,2.4671997E-1,1.9950752E-1,6.511628E-1,1.9876854E-1,1.4351521E-3,9.905799E-1,8.911328E-3,7.3735766E-2,3.0708647E-1,5.5275787E-2,1.7976409E-2,1E0,2.8542957E-1,7.500002E-1,1.9829415E-2,2.8542957E-1,9.285714E-1,6.064164E-2,3.4939345E-2,1.4285715E-1,5.3501E-2,1.02945246E-1,5.6989247E-1,1.3673839E-1,1.0003118E-11,7.6380366E-1,3.8194094E-2,-8.087734E-2,9.990016E-1,-2.5918428E-2,2.9482456E-2,5.1596787E-2,-5.8936458E-2,8.6E-1,7.816293E-1,9.610572E-1,9.062296E-3,5.0492173E-1,7.633588E-3,8.947368E-1,2.3073286E-1,6.394564E-1,5E-1,3.9144263E-1,9.7630925E-2,3.9595187E-1,2.3269297E-1,9.3606925E-1,1.964688E-1,1E0,9.999968E-1,1.28E-16,2.987909E-1,-3.5262823E-2,-8.022555E-2,7.517354E-1,9.4608974E-1,6.1471753E-2,9.925782E-1,8.5231924E-1,-1.0132812E-2,-7.112054E-2,2.4023566E-2,4.929163E-2,2.2930545E-1,5.723714E-2,4.10464E-2,5.1427573E-2,3.791431E-1,2.5641026E-2,4.1E-12,-3.3435896E-2,4.450403E-2,2.3151979E-2,4.5880407E-2,3.030303E-2,6.853113E-1,2.6822954E-2,2.5844595E-3,2.4E-10,6.1701402E-2,6.8705296E-3,7.826306E-2,2.6265526E-1,1.17473215E-1,-8.136694E-2,-9.6834935E-3,-8.35657E-2,-7.78416E-2,-1.60099E-2,-8.0048405E-2,-1.9075077E-2,4.147082E-2,4.453034E-2,-3.105167E-2,1.6409282E-2,5.9890196E-2,1.8372089E-2,5.3756103E-2,-2.5805077E-2,-6.801545E-2,4.9525145E-2,-1.3852121E-2,-0E0,5.082563E-2,4.9552716E-2,-2.0954898E-2,-7.8034274E-2,-5.149156E-2,-3.5851467E-2,2.684471E-2,6.097237E-2,2.6001746E-2,5.3850047E-2,-4.024821E-2,3.8195928E-3,-4.591077E-2,-2.0161988E-2,3.7541013E-2,5.1586494E-2,-8.661516E-3,5.0553396E-2,-4.6570957E-2,1.6483473E-2,5.6926515E-2,5.58816E-2,-1.800041E-2,2.2579337E-2,5.7515506E-2,-3.0257497E-2,3.7059426E-2,-3.9581873E-2,4.725172E-2,5.7336688E-2,2.9488998E-2],"split_indices":[0,3,2,11,2,12,2,18,3,5,0,0,1,12,2,0,0,5,2,11,6,2,3,0,2,5,0,5,3,12,1,11,0,0,1,0,12,0,0,3,11,0,0,3,5,3,12,3,5,12,12,3,3,2,11,7,11,1,2,0,0,11,11,0,11,0,0,0,12,2,11,2,0,0,12,5,1,0,0,5,0,5,12,5,5,1,0,5,12,12,12,0,0,0,0,0,0,0,0,0,0,0,0,0,0,0,0,0,0,0,0,0,0,0,0,0,0,0,0,0,0,0,0,0,0,0,0,0,0,0,0,0,0,0,0,0,0,0,0,0,0],"split_type":[0,0,0,0,0,0,0,0,0,0,0,0,0,0,0,0,0,0,0,0,0,0,0,0,0,0,0,0,0,0,0,0,0,0,0,0,0,0,0,0,0,0,0,0,0,0,0,0,0,0,0,0,0,0,0,0,0,0,0,0,0,0,0,0,0,0,0,0,0,0,0,0,0,0,0,0,0,0,0,0,0,0,0,0,0,0,0,0,0,0,0,0,0,0,0,0,0,0,0,0,0,0,0,0,0,0,0,0,0,0,0,0,0,0,0,0,0,0,0,0,0,0,0,0,0,0,0,0,0,0,0,0,0,0,0,0,0,0,0,0,0],"sum_hessian":[6.6550537E3,2.8257874E3,3.8292664E3,2.5873762E3,2.3841095E2,3.4629776E2,3.4829688E3,1.0188738E1,2.5771875E3,3.530794E1,2.0310301E2,1.03273834E2,2.4302393E2,1.9423914E2,3.2887295E3,7.9688883E0,2.2198498E0,2.384224E3,1.9296356E2,2.9151052E1,6.156888E0,1.917878E2,1.1315222E1,2.983113E1,7.344271E1,2.3710193E2,5.921998E0,8.968748E1,1.0455166E2,3.0690078E3,2.1972171E2,2.3811533E3,3.070716E0,1.1092787E2,8.203569E1,2.178951E0,2.6972101E1,3.9223623E0,2.2345257E0,3.0648829E1,1.6113896E2,9.123924E0,2.1912975E0,1.6020533E1,5.7422176E1,2.2273418E2,1.4367764E1,8.482113E1,4.866346E0,3.653E1,6.802166E1,4.224595E2,2.6465483E3,1.7111945E2,4.8602264E1,4.704413E2,1.910712E3,3.8304752E1,4.3730938E1,2.969083E0,2.4003017E1,1.4703504E1,1.5945326E1,6.899329E1,9.214567E1,6.80262E0,2.3213038E0,9.329593E0,6.690939E0,3.274393E1,2.4678247E1,2.1958879E2,3.1453717E0,3.919208E0,1.0448556E1,6.652196E1,1.829917E1,2.4043908E0,2.461955E0,3.1706276E1,4.8237205E0,7.510193E0,6.0511467E1,7.3067207E0,4.151528E2,1.1188156E1,2.63536E3,1.6139761E2,9.721822E0,1.725152E1,3.1350744E1,4.0615524E2,6.428607E1,1.2875715E3,6.2314044E2,5.7430143E0,3.256174E1,7.4301357E0,3.6300804E1,2.752868E0,1.1950635E1,8.6662245E0,7.279102E0,2.1730694E1,7.041498E1,3.3374364E0,3.4651835E0,3.530605E0,3.1603339E0,5.381564E0,2.7362366E1,6.2365203E0,1.8441727E1,1.2324294E2,9.6345856E1,6.531954E0,3.9166024E0,5.9489388E1,7.0325723E0,1.5691323E1,2.607846E0,1.3586127E1,1.812015E1,4.4582357E0,3.0519567E0,5.7933567E1,2.5778995E0,4.502236E0,2.804485E0,5.329134E0,4.0982367E2,8.989019E0,2.1991367E0,2.5740695E0,1.5882355E2,2.142318E0,7.5795035E0,9.416801E0,7.8347187E0,1.7302134E1,1.404861E1],"tree_param":{"num_deleted":"0","num_feature":"45","num_nodes":"141","size_leaf_vector":"1"}},{"base_weights":[9.699042E-3,-1.6268585E0,1.2366785E0,-1.8380891E0,6.6914725E-1,-7.173115E-1,1.4491853E0,1.1601268E0,-1.8508722E0,-1.5027138E0,1.0211405E0,6.07989E-1,-1.3579456E0,1.027405E0,1.4763868E0,5.473268E-2,4.4982256E-3,-1.895713E0,-1.0870175E0,1.3675779E-2,-1.6650385E0,1.1373422E0,-8.587955E-1,1.2600716E0,7.490304E-2,-1.4664667E0,4.7043005E-1,1.3328016E0,7.8629524E-1,1.4935257E0,1.2276146E0,-1.8984329E0,1.8381808E-2,-7.854026E-2,6.673933E-2,-1.7613258E0,-1.1188711E-2,2.3547362E-1,1.2326938E0,-1.1134902E0,8.469819E-3,5.9753053E-2,7.200051E-1,-8.54118E-1,5.825568E-1,-1.5618885E0,3.2142702E-1,5.1723022E-2,-6.809812E-2,-2.6087207E-3,1.3710546E0,2.0405356E-2,1.190467E0,6.4379776E-1,1.4969331E0,1.3478249E0,8.5498655E-1,-1.9033848E0,-6.3513505E-1,-1.3155817E0,8.0877703E-1,-2.2998555E-2,-7.336879E-2,-7.384268E-1,7.507305E-1,1.0617559E0,1.4233022E0,-1.3865314E-2,-5.2376065E-2,-5.5997685E-2,1.2298193E0,-1.3573754E0,4.203495E-1,7.3277193E-1,-5.5070117E-2,-1.1029477E0,-1.7969874E0,-8.2375574E-1,4.345521E-2,4.296846E-3,1.3993667E0,7.804159E-1,-2.231143E-1,1.3214893E0,3.1382206E-1,-5.249985E-2,5.543168E-2,1.392108E0,6.0451414E-2,1.3932247E0,4.9961555E-1,4.0243965E-1,1.2776138E0,-7.726872E-2,-6.8794586E-2,-6.789319E-2,1.9620448E-2,-6.310455E-2,2.5811851E-2,1.2353736E-3,4.9758065E-2,-2.677367E-3,-3.8782287E-2,8.649087E-4,4.856136E-2,1.3542803E-2,5.031149E-2,5.826835E-2,1.6912917E-2,2.015124E-2,5.4706372E-2,4.1813585E-3,-6.5349035E-2,3.747239E-2,-1.6336419E-2,4.0963534E-2,-6.0799452E-3,-6.27233E-2,-2.0972341E-2,-7.276507E-2,-1.0051618E-2,4.355318E-3,-6.445818E-2,1.7315371E-2,5.672389E-2,4.1911453E-2,-8.761749E-3,-2.887845E-2,2.8518438E-2,5.530506E-2,1.7193016E-2,-4.088855E-2,3.9936017E-2,2.2926452E-2,5.6030795E-2,4.3369774E-2,5.7532642E-2,3.773108E-2,-2.1796638E-2,-8.412377E-3,3.7407894E-2,2.6049223E-2,5.7076387E-2],"categories":[],"categories_nodes":[],"categories_segments":[],"categories_sizes":[],"default_left":[0,0,0,0,0,0,0,0,0,0,0,0,0,0,0,0,0,0,0,0,0,0,0,0,0,0,0,0,0,0,0,0,0,0,0,0,0,0,0,0,0,0,0,0,0,0,0,0,0,0,0,0,0,0,0,0,0,0,0,0,0,0,0,0,0,0,0,0,0,0,0,0,0,0,0,0,0,0,0,0,0,0,0,0,0,0,0,0,0,0,0,0,0,0,0,0,0,0,0,0,0,0,0,0,0,0,0,0,0,0,0,0,0,0,0,0,0,0,0,0,0,0,0,0,0,0,0,0,0,0,0,0,0,0,0,0,0,0,0,0,0,0,0],"id":4,"left_children":[1,3,5,7,9,11,13,15,17,19,21,23,25,27,29,-1,-1,31,33,-1,35,37,39,41,43,45,47,49,51,53,55,57,-1,-1,59,61,-1,63,65,67,-1,-1,69,71,73,75,77,-1,-1,-1,79,81,83,85,87,89,91,93,95,97,99,-1,-1,101,103,105,107,-1,-1,-1,109,111,113,115,-1,117,119,121,-1,-1,123,125,127,129,131,-1,-1,133,-1,135,137,139,141,-1,-1,-1,-1,-1,-1,-1,-1,-1,-1,-1,-1,-1,-1,-1,-1,-1,-1,-1,-1,-1,-1,-1,-1,-1,-1,-1,-1,-1,-1,-1,-1,-1,-1,-1,-1,-1,-1,-1,-1,-1,-1,-1,-1,-1,-1,-1,-1,-1,-1],"loss_changes":[1.3324293E4,1.3802583E3,1.5758345E3,1.02015625E2,1.8513568E2,3.172553E2,3.7479004E1,2.236124E0,8.646777E1,1.0842735E1,4.6302597E1,4.2202152E1,5.0700592E1,1.4259033E1,1.15859375E1,0E0,0E0,1.6698242E1,1.4823083E2,0E0,3.4848862E0,1.639795E1,3.758956E0,5.6154785E0,3.2684635E1,4.1186646E1,2.8614208E1,5.10585E0,3.7123436E1,7.504883E0,8.16626E0,1.38359375E1,0E0,0E0,6.672423E1,1.217186E0,0E0,1.0619495E1,3.9979858E0,9.438982E-1,0E0,0E0,2.180706E1,1.6360119E1,1.4139759E1,2.2104492E1,1.2153508E1,0E0,0E0,0E0,2.8845825E0,8.131022E0,8.461853E0,2.193013E1,2.0986328E0,5.2402954E0,9.814102E0,8.975586E0,1.4258781E1,1.2780243E1,1.4170963E1,0E0,0E0,9.762597E-1,4.470942E0,1.3219376E1,1.8811493E0,0E0,0E0,0E0,6.815014E-1,7.5297356E0,3.703401E0,1.11562E1,0E0,2.0301857E1,4.388855E0,4.4773636E0,0E0,0E0,7.747345E-1,3.1667714E0,1.592974E1,2.934723E0,1.1668369E1,0E0,0E0,1.6467285E0,0E0,2.8256226E-1,5.0734186E0,9.434491E0,1.4630699E0,0E0,0E0,0E0,0E0,0E0,0E0,0E0,0E0,0E0,0E0,0E0,0E0,0E0,0E0,0E0,0E0,0E0,0E0,0E0,0E0,0E0,0E0,0E0,0E0,0E0,0E0,0E0,0E0,0E0,0E0,0E0,0E0,0E0,0E0,0E0,0E0,0E0,0E0,0E0,0E0,0E0,0E0,0E0,0E0,0E0,0E0,0E0,0E0,0E0,0E0],"parents":[2147483647,0,0,1,1,2,2,3,3,4,4,5,5,6,6,7,7,8,8,9,9,10,10,11,11,12,12,13,13,14,14,17,17,18,18,20,20,21,21,22,22,23,23,24,24,25,25,26,26,27,27,28,28,29,29,30,30,31,31,34,34,35,35,37,37,38,38,39,39,42,42,43,43,44,44,45,45,46,46,50,50,51,51,52,52,53,53,54,54,55,55,56,56,57,57,58,58,59,59,60,60,63,63,64,64,65,65,66,66,70,70,71,71,72,72,73,73,75,75,76,76,77,77,80,80,81,81,82,82,83,83,84,84,87,87,89,89,90,90,91,91,92,92],"right_children":[2,4,6,8,10,12,14,16,18,20,22,24,26,28,30,-1,-1,32,34,-1,36,38,40,42,44,46,48,50,52,54,56,58,-1,-1,60,62,-1,64,66,68,-1,-1,70,72,74,76,78,-1,-1,-1,80,82,84,86,88,90,92,94,96,98,100,-1,-1,102,104,106,108,-1,-1,-1,110,112,114,116,-1,118,120,122,-1,-1,124,126,128,130,132,-1,-1,134,-1,136,138,140,142,-1,-1,-1,-1,-1,-1,-1,-1,-1,-1,-1,-1,-1,-1,-1,-1,-1,-1,-1,-1,-1,-1,-1,-1,-1,-1,-1,-1,-1,-1,-1,-1,-1,-1,-1,-1,-1,-1,-1,-1,-1,-1,-1,-1,-1,-1,-1,-1,-1,-1],"split_conditions":[9.8853326E-1,7.368421E-1,1.5491895E-1,5E-1,2.3546705E-1,6.2794685E-2,2.5786528E-1,1.3692285E-1,6.666667E-1,1.8549284E-2,7.08956E-10,9.9702305E-1,2.985527E-3,6.638698E-2,3.0708647E-1,5.473268E-2,4.4982256E-3,7.5949365E-1,2.8542957E-1,1.3675779E-2,9E-1,2.787364E-1,9.285714E-1,9.905799E-1,6.953559E-2,1.9624153E-1,1.9829415E-2,2.613976E-1,5.956076E-1,2.3269297E-1,5.81E-12,9.777825E-1,1.8381808E-2,-7.854026E-2,9.990016E-1,2.19E-12,-1.1188711E-2,8.333333E-1,8.5714287E-1,2.569967E-1,8.469819E-3,5.9753053E-2,9.9401796E-1,5.5376345E-1,6.3262405E-7,1.28E-16,5.328918E-1,5.1723022E-2,-6.809812E-2,-2.6087207E-3,7.1850657E-3,8.918041E-2,1.27E-12,2.5429878E-1,1.327939E-1,9.3606925E-1,4.82E-10,2.9736543E-1,7.38755E-3,1.5132116E-1,2.569967E-1,-2.2998555E-2,-7.336879E-2,2.5468695E-1,6.5008506E-2,2.9742485E-1,6.108108E-1,-1.3865314E-2,-5.2376065E-2,-5.5997685E-2,4.785985E-1,1.605895E-2,1.28E-16,4.29754E-2,-5.5070117E-2,5.8741476E-2,7.5949365E-1,5.091381E-1,4.345521E-2,4.296846E-3,1.5838659E-1,1.2659976E-1,2.0501345E-1,5.1678944E-1,1.347188E-1,-5.249985E-2,5.543168E-2,3.9595187E-1,6.0451414E-2,4.1399005E-1,1.74E-16,2.5429878E-1,9.948637E-1,-7.726872E-2,-6.8794586E-2,-6.789319E-2,1.9620448E-2,-6.310455E-2,2.5811851E-2,1.2353736E-3,4.9758065E-2,-2.677367E-3,-3.8782287E-2,8.649087E-4,4.856136E-2,1.3542803E-2,5.031149E-2,5.826835E-2,1.6912917E-2,2.015124E-2,5.4706372E-2,4.1813585E-3,-6.5349035E-2,3.747239E-2,-1.6336419E-2,4.0963534E-2,-6.0799452E-3,-6.27233E-2,-2.0972341E-2,-7.276507E-2,-1.0051618E-2,4.355318E-3,-6.445818E-2,1.7315371E-2,5.672389E-2,4.1911453E-2,-8.761749E-3,-2.887845E-2,2.8518438E-2,5.530506E-2,1.7193016E-2,-4.088855E-2,3.9936017E-2,2.2926452E-2,5.6030795E-2,4.3369774E-2,5.7532642E-2,3.773108E-2,-2.1796638E-2,-8.412377E-3,3.7407894E-2,2.6049223E-2,5.7076387E-2],"split_indices":[0,3,2,10,2,12,2,34,3,12,0,0,1,12,2,0,0,12,2,0,3,2,3,0,2,4,6,3,3,3,1,0,0,0,1,1,0,3,3,12,0,0,0,3,1,1,3,0,0,0,12,12,1,12,12,2,1,12,1,4,12,0,0,2,12,2,12,0,0,0,3,12,1,12,0,2,12,3,0,0,2,4,12,12,12,0,0,3,0,2,1,12,0,0,0,0,0,0,0,0,0,0,0,0,0,0,0,0,0,0,0,0,0,0,0,0,0,0,0,0,0,0,0,0,0,0,0,0,0,0,0,0,0,0,0,0,0,0,0,0,0,0,0],"split_type":[0,0,0,0,0,0,0,0,0,0,0,0,0,0,0,0,0,0,0,0,0,0,0,0,0,0,0,0,0,0,0,0,0,0,0,0,0,0,0,0,0,0,0,0,0,0,0,0,0,0,0,0,0,0,0,0,0,0,0,0,0,0,0,0,0,0,0,0,0,0,0,0,0,0,0,0,0,0,0,0,0,0,0,0,0,0,0,0,0,0,0,0,0,0,0,0,0,0,0,0,0,0,0,0,0,0,0,0,0,0,0,0,0,0,0,0,0,0,0,0,0,0,0,0,0,0,0,0,0,0,0,0,0,0,0,0,0,0,0,0,0,0,0],"sum_hessian":[6.6335474E3,2.8421936E3,3.7913538E3,2.6029658E3,2.3922774E2,3.7160605E2,3.4197478E3,1.0636419E1,2.5923293E3,3.28687E1,2.0635904E2,1.2106005E2,2.50546E2,2.0975734E2,3.2099905E3,8.538222E0,2.0981963E0,2.4470654E3,1.452639E2,2.5191824E0,3.0349516E1,1.947683E2,1.1590737E1,5.3754738E1,6.730531E1,2.3674681E2,1.3799194E1,9.0360985E1,1.1939636E2,2.9980376E3,2.119529E2,2.444479E3,2.586403E0,8.2201614E1,6.306229E1,2.8055874E1,2.2936423E0,1.9055256E1,1.7571304E2,9.406183E0,2.184554E0,3.6154823E1,1.7599913E1,2.3471788E1,4.3833523E1,2.2492468E2,1.1822137E1,1.0336687E1,3.462507E0,2.3182366E0,8.804275E1,4.1691147E1,7.7705215E1,1.2849906E1,2.9851877E3,1.580729E2,5.3879993E1,2.4343508E3,1.0128237E1,2.1710577E1,4.1351715E1,2.217945E0,2.5837929E1,6.376211E0,1.2679045E1,9.637696E1,7.9336075E1,2.5814328E0,6.824751E0,3.0354679E0,1.4564445E1,1.6836758E1,6.6350307E0,4.1341057E1,2.4924667E0,7.826297E1,1.4666171E2,4.651281E0,7.170856E0,2.1118593E0,8.593089E1,9.68154E0,3.2009605E1,6.706086E1,1.064435E1,3.2850657E0,9.56484E0,3.721402E2,2.6130474E3,1.4932022E2,8.752688E0,2.7076004E1,2.6803988E1,2.1000583E3,3.3429248E2,4.995394E0,5.132843E0,1.9368782E1,2.341796E0,1.530111E1,2.6050604E1,2.0737348E0,4.302477E0,5.4169E0,7.2621446E0,2.1243645E1,7.5133316E1,7.62346E1,3.1014836E0,3.182375E0,1.138207E1,2.7180421E0,1.4118716E1,4.0817094E0,2.5533214E0,3.1067455E1,1.0273601E1,4.234305E1,3.5919926E1,1.4435254E2,2.309175E0,2.466158E0,2.185123E0,2.1935875E0,8.3737305E1,7.6789947E0,2.002545E0,2.1100456E1,1.0909149E1,6.213761E1,4.9232497E0,3.3896902E0,7.25466E0,4.718756E0,3.6742142E2,2.2488108E1,1.2683211E2,6.2785625E0,2.4741256E0,1.2786828E1,1.4289176E1,6.319948E0,2.048404E1],"tree_param":{"num_deleted":"0","num_feature":"45","num_nodes":"143","size_leaf_vector":"1"}},{"base_weights":[1.1362694E-2,1.1702046E0,-1.5825335E0,-6.714989E-1,1.3963811E0,-1.7794175E0,6.8805236E-1,-1.0397995E0,1.0668031E0,1.41791E0,1.5054722E-1,-1.8192734E0,-1.0882518E0,-1.176514E0,1.0008487E0,-1.4306233E0,-4.010424E-1,1.1905464E0,-5.823515E-1,9.670478E-1,1.4400027E0,-7.247163E-2,8.5371083E-1,-1.8233138E0,3.9054874E-2,-1.8679988E0,-3.6836548E-3,-1.6139091E0,7.75756E-1,-2.5382498E-1,1.088757E0,-1.5364405E0,-8.743869E-2,2.0227991E-1,-9.683806E-1,1.2616005E0,7.628568E-2,-4.578589E-2,8.385718E-3,6.379192E-1,1.2731675E0,1.457561E0,1.1580522E0,-4.177898E-1,1.2761528E0,-1.6099789E0,-1.8706999E0,-1.0528567E0,-7.6490484E-2,7.9515535E-1,-1.354183E0,-7.074669E-2,-1.9300023E-2,1.21677695E-2,4.3445926E-2,5.166204E-2,-1.1287465E0,2.0051728E-1,1.2415695E0,-1.1736637E0,-1.7146364E0,3.701858E-2,-7.005305E-1,4.8172614E-1,-1.7725848E0,4.61632E-2,-1.2510674E0,6.3414097E-1,5.507191E-2,3.1745497E-2,-2.4022505E-2,1.3295184E0,5.0174277E-3,1.4073779E-1,1.3354018E0,7.006536E-1,1.4605505E0,1.3884144E0,8.510895E-1,-5.535802E-2,7.8998953E-1,1.3769541E0,2.712138E-3,-1.8773879E0,-8.14004E-2,-1.9194891E0,-1.7734072E0,-6.0626186E-2,-2.0220657E-4,-1.01625346E-1,1.3274084E0,2.276862E-2,-7.144251E-2,-6.267714E-2,-1.668752E-3,-4.7164366E-1,8.299076E-1,5.885913E-2,1.0618562E0,-5.0078385E-2,1.2798153E-2,-7.388935E-2,-5.4646626E-2,-5.5544898E-2,3.8565166E-2,-2.4331609E-2,3.426333E-2,-2.8352512E-2,-8.067206E-2,-5.3509135E-2,4.378292E-2,-5.6310263E-2,4.6098392E-2,-2.4500662E-2,5.2897997E-2,5.5952024E-2,2.6992448E-3,-3.004042E-2,1.7424088E-2,-3.4093298E-2,4.1518975E-2,5.4678723E-2,9.337815E-3,-2.050903E-2,5.3565435E-2,5.1338177E-2,5.8827817E-2,5.6848124E-2,1.61725E-2,5.1300295E-2,2.2778984E-2,4.4793256E-2,4.197109E-3,4.333167E-3,5.8520325E-2,-7.570322E-2,1.7265422E-2,-2.5664307E-2,5.4278754E-2,-3.837403E-2,-7.686569E-2,-7.378034E-2,-4.275702E-2,-3.1669226E-2,3.2857478E-2,3.052613E-3,5.750168E-2,5.642955E-3,-3.7744034E-2,1.1799321E-2,5.597259E-2,1.5705636E-2,5.0300233E-2],"categories":[],"categories_nodes":[],"categories_segments":[],"categories_sizes":[],"default_left":[0,0,0,0,0,0,0,0,0,0,0,0,0,0,0,0,0,0,0,0,0,0,0,0,0,0,0,0,0,0,0,0,0,0,0,0,0,0,0,0,0,0,0,0,0,0,0,0,0,0,0,0,0,0,0,0,0,0,0,0,0,0,0,0,0,0,0,0,0,0,0,0,0,0,0,0,0,0,0,0,0,0,0,0,0,0,0,0,0,0,0,0,0,0,0,0,0,0,0,0,0,0,0,0,0,0,0,0,0,0,0,0,0,0,0,0,0,0,0,0,0,0,0,0,0,0,0,0,0,0,0,0,0,0,0,0,0,0,0,0,0,0,0,0,0,0,0,0,0,0,0,0,0],"id":5,"left_children":[1,3,5,7,9,11,13,15,17,19,21,23,25,27,29,31,33,35,37,39,41,-1,43,45,-1,47,49,51,53,55,57,59,61,63,65,67,69,-1,-1,71,73,75,77,79,81,83,85,87,-1,89,91,-1,-1,-1,-1,-1,93,95,97,99,101,-1,103,105,107,109,111,113,-1,-1,-1,115,117,119,121,123,125,127,129,-1,131,133,-1,135,137,139,141,-1,-1,143,145,-1,-1,-1,-1,147,149,-1,151,-1,-1,-1,-1,-1,-1,-1,-1,-1,-1,-1,-1,-1,-1,-1,-1,-1,-1,-1,-1,-1,-1,-1,-1,-1,-1,-1,-1,-1,-1,-1,-1,-1,-1,-1,-1,-1,-1,-1,-1,-1,-1,-1,-1,-1,-1,-1,-1,-1,-1,-1,-1,-1,-1],"loss_changes":[1.2168722E4,1.5900259E3,1.2411719E3,2.6863058E2,9.076416E1,6.8041016E1,1.3062366E2,8.545981E1,1.5753815E1,3.1635742E1,8.274745E1,2.9106934E1,1.1971344E2,2.8919456E1,2.1390564E1,3.0087921E1,4.565455E1,5.213623E0,2.8920746E0,1.5043671E1,1.3800781E1,0E0,2.4302338E1,2.098877E1,0E0,6.642761E-1,6.624851E1,3.60643E0,4.8870826E-1,1.931783E1,2.3829056E1,1.0500946E1,1.1022055E1,3.6594227E1,1.9849205E1,3.5869904E0,3.054899E0,0E0,0E0,3.4401077E1,5.3982697E0,5.5283203E0,1.2151459E1,1.4794041E1,3.8306007E0,1.8167651E2,5.5507812E0,3.0344076E0,0E0,1.863801E1,2.011887E1,0E0,0E0,0E0,0E0,0E0,4.0686245E0,1.2054076E1,4.463211E0,8.514694E0,3.1826172E0,0E0,1.404912E1,2.4150724E1,4.3502998E-1,2.44129E1,2.1892174E1,1.1170603E1,0E0,0E0,0E0,3.0490875E0,1.4060544E1,5.750189E0,2.1964264E0,1.1476145E1,3.1884766E0,2.7198792E0,9.407116E0,0E0,1.0674493E0,3.0361023E0,0E0,1.4255127E1,5.511309E1,5.463867E-1,3.129004E1,0E0,0E0,1.0330935E1,3.08807E0,0E0,0E0,0E0,0E0,4.218709E0,3.874673E0,0E0,1.1011559E1,0E0,0E0,0E0,0E0,0E0,0E0,0E0,0E0,0E0,0E0,0E0,0E0,0E0,0E0,0E0,0E0,0E0,0E0,0E0,0E0,0E0,0E0,0E0,0E0,0E0,0E0,0E0,0E0,0E0,0E0,0E0,0E0,0E0,0E0,0E0,0E0,0E0,0E0,0E0,0E0,0E0,0E0,0E0,0E0,0E0,0E0,0E0,0E0,0E0,0E0,0E0,0E0,0E0,0E0],"parents":[2147483647,0,0,1,1,2,2,3,3,4,4,5,5,6,6,7,7,8,8,9,9,10,10,11,11,12,12,13,13,14,14,15,15,16,16,17,17,18,18,19,19,20,20,22,22,23,23,25,25,26,26,27,27,28,28,29,29,30,30,31,31,32,32,33,33,34,34,35,35,36,36,39,39,40,40,41,41,42,42,43,43,44,44,45,45,46,46,47,47,49,49,50,50,56,56,57,57,58,58,59,59,60,60,62,62,63,63,64,64,65,65,66,66,67,67,71,71,72,72,73,73,74,74,75,75,76,76,77,77,78,78,80,80,81,81,83,83,84,84,85,85,86,86,89,89,90,90,95,95,96,96,98,98],"right_children":[2,4,6,8,10,12,14,16,18,20,22,24,26,28,30,32,34,36,38,40,42,-1,44,46,-1,48,50,52,54,56,58,60,62,64,66,68,70,-1,-1,72,74,76,78,80,82,84,86,88,-1,90,92,-1,-1,-1,-1,-1,94,96,98,100,102,-1,104,106,108,110,112,114,-1,-1,-1,116,118,120,122,124,126,128,130,-1,132,134,-1,136,138,140,142,-1,-1,144,146,-1,-1,-1,-1,148,150,-1,152,-1,-1,-1,-1,-1,-1,-1,-1,-1,-1,-1,-1,-1,-1,-1,-1,-1,-1,-1,-1,-1,-1,-1,-1,-1,-1,-1,-1,-1,-1,-1,-1,-1,-1,-1,-1,-1,-1,-1,-1,-1,-1,-1,-1,-1,-1,-1,-1,-1,-1,-1,-1,-1,-1],"split_conditions":[2.5892934E-1,1.6518223E-1,7.407407E-1,2.985527E-3,1.5599686E-1,6.666667E-1,2.4284822E-1,8.332161E-2,9.3849915E-1,2.4671997E-1,9.734311E-1,1E0,2.8784245E-1,1.1111111E-1,9.889461E-1,1.2308428E-1,9.65E-16,1.6648509E-2,2.4717183E-1,5.7258874E-1,3.0708647E-1,-7.247163E-2,5E-1,7.6380366E-1,3.9054874E-2,7.6380366E-1,3.0691335E-1,8.888889E-1,2.9106098E-1,1.28E-16,2.8542957E-1,1.74E-16,3.5512993E-15,9.03885E-1,5.263158E-3,3.1144122E-2,5.587692E-1,-4.578589E-2,8.385718E-3,8.595702E-2,5.8743935E-3,2.3269297E-1,2.25E-15,6.0275394E-1,9.3606925E-1,1E0,9.998896E-1,7.39E-10,-7.6490484E-2,3.0308235E-1,1.28E-16,-7.074669E-2,-1.9300023E-2,1.21677695E-2,4.3445926E-2,5.166204E-2,7.9844964E-1,8.6E-1,7.816293E-1,7.1428575E-2,5.247682E-1,3.701858E-2,1.12E-9,9.512003E-2,1.3492497E-3,8.45E-13,9.230769E-1,5E-1,5.507191E-2,3.1745497E-2,-2.4022505E-2,2.4284822E-1,5.602451E-1,7.826087E-1,9.6731704E-1,2.9362872E-1,2.800864E-1,8.6967653E-1,1.1591029E-1,-5.535802E-2,6.784191E-1,2.0473991E-1,2.712138E-3,9.915005E-1,9.9998957E-1,1.6666667E-1,3.0021337E-1,-6.0626186E-2,-2.0220657E-4,2.8571429E-2,7.246377E-3,2.276862E-2,-7.144251E-2,-6.267714E-2,-1.668752E-3,2.6822954E-2,9.4608974E-1,5.885913E-2,9.925782E-1,-5.0078385E-2,1.2798153E-2,-7.388935E-2,-5.4646626E-2,-5.5544898E-2,3.8565166E-2,-2.4331609E-2,3.426333E-2,-2.8352512E-2,-8.067206E-2,-5.3509135E-2,4.378292E-2,-5.6310263E-2,4.6098392E-2,-2.4500662E-2,5.2897997E-2,5.5952024E-2,2.6992448E-3,-3.004042E-2,1.7424088E-2,-3.4093298E-2,4.1518975E-2,5.4678723E-2,9.337815E-3,-2.050903E-2,5.3565435E-2,5.1338177E-2,5.8827817E-2,5.6848124E-2,1.61725E-2,5.1300295E-2,2.2778984E-2,4.4793256E-2,4.197109E-3,4.333167E-3,5.8520325E-2,-7.570322E-2,1.7265422E-2,-2.5664307E-2,5.4278754E-2,-3.837403E-2,-7.686569E-2,-7.378034E-2,-4.275702E-2,-3.1669226E-2,3.2857478E-2,3.052613E-3,5.750168E-2,5.642955E-3,-3.7744034E-2,1.1799321E-2,5.597259E-2,1.5705636E-2,5.0300233E-2],"split_indices":[11,2,3,1,6,3,2,2,6,2,13,5,2,5,1,5,1,1,11,8,2,0,7,11,0,11,2,3,8,1,2,1,1,8,5,2,8,0,0,11,11,3,1,3,2,7,11,1,0,2,1,0,0,0,0,0,3,3,11,5,8,0,1,11,5,1,3,3,0,0,0,2,3,3,8,2,2,8,5,0,2,2,0,8,1,3,2,0,0,5,5,0,0,0,0,5,11,0,11,0,0,0,0,0,0,0,0,0,0,0,0,0,0,0,0,0,0,0,0,0,0,0,0,0,0,0,0,0,0,0,0,0,0,0,0,0,0,0,0,0,0,0,0,0,0,0,0,0,0,0,0,0,0],"split_type":[0,0,0,0,0,0,0,0,0,0,0,0,0,0,0,0,0,0,0,0,0,0,0,0,0,0,0,0,0,0,0,0,0,0,0,0,0,0,0,0,0,0,0,0,0,0,0,0,0,0,0,0,0,0,0,0,0,0,0,0,0,0,0,0,0,0,0,0,0,0,0,0,0,0,0,0,0,0,0,0,0,0,0,0,0,0,0,0,0,0,0,0,0,0,0,0,0,0,0,0,0,0,0,0,0,0,0,0,0,0,0,0,0,0,0,0,0,0,0,0,0,0,0,0,0,0,0,0,0,0,0,0,0,0,0,0,0,0,0,0,0,0,0,0,0,0,0,0,0,0,0,0,0],"sum_hessian":[6.5861284E3,3.813704E3,2.7724246E3,4.168642E2,3.39684E3,2.551447E3,2.2097734E2,3.4436224E2,7.250195E1,3.3389229E3,5.7917145E1,2.4106604E3,1.4078679E2,3.130263E1,1.8967471E2,2.1277777E2,1.3158449E2,6.775661E1,4.745352E0,1.5827089E2,3.1806519E3,1.4825202E1,4.309194E1,2.4075642E3,3.0960677E0,8.142906E1,5.9357727E1,2.5756557E1,5.546072E0,1.2221289E1,1.7745343E2,1.9703673E2,1.5741039E1,6.3996315E1,6.7588165E1,6.3486244E1,4.270361E0,2.5885437E0,2.156808E0,7.7912636E1,8.035826E1,2.9899312E3,1.9072075E2,1.0690148E1,3.2401794E1,4.4431525E2,1.963249E3,5.5869365E0,7.5842125E1,3.7508247E1,2.184948E1,2.2084175E1,3.6723814E0,3.1153293E0,2.430743E0,4.2044578E0,8.01683E0,2.6483238E1,1.5097018E2,6.7587524E1,1.294492E2,5.6816473E0,1.0059392E1,5.676999E1,7.2263274E0,1.4833761E1,5.2754406E1,1.0991329E1,5.2494915E1,2.0611084E0,2.2092524E0,3.6628456E1,4.1284176E1,4.4397564E0,7.59185E1,1.2820322E1,2.9771108E3,1.067561E2,8.396465E1,5.904104E0,4.7860436E0,2.9701765E1,2.7000296E0,3.779102E2,6.640506E1,1.2943937E3,6.688553E2,3.4993706E0,2.087566E0,1.4201559E1,2.3306688E1,3.9057007E0,1.7943779E1,5.3334417E0,2.683389E0,1.285085E1,1.3632388E1,6.2837425E1,8.813277E1,6.4438385E1,3.1491382E0,9.04456E1,3.9003605E1,7.2772245E0,2.7821677E0,1.4299666E1,4.247032E1,2.1543145E0,5.072013E0,6.233825E0,8.5999365E0,4.9953754E1,2.8006506E0,3.89734E0,7.0939894E0,3.4544464E1,2.083994E0,1.4626434E1,2.6657743E1,2.0781896E0,2.361567E0,7.348231E1,2.4361935E0,4.434081E0,8.386241E0,1.6874577E2,2.808365E3,1.0278566E2,3.9704385E0,3.1618177E1,5.2346478E1,2.7036712E0,2.0823724E0,2.104072E0,2.7597692E1,3.756621E2,2.2480848E0,4.8240215E1,1.8164848E1,3.999263E0,1.2903944E3,6.0593933E2,6.291594E1,8.269603E0,5.9319563E0,2.0961246E0,2.1210564E1,5.804445E0,7.0464053E0,7.902309E0,5.7300797E0,2.073323E1,6.7399536E1],"tree_param":{"num_deleted":"0","num_feature":"45","num_nodes":"153","size_leaf_vector":"1"}},{"base_weights":[5.2553546E-3,1.1453806E0,-1.519524E0,-6.1198634E-1,1.3718011E0,-1.7188281E0,6.974471E-1,6.468388E-1,-1.1925657E0,1.3925729E0,1.6902544E-1,-1.7549232E0,9.796165E-1,-1.253487E0,1.0288131E0,2.431722E-1,1.1504252E0,-1.2796469E0,1.165606E0,9.955192E-1,1.4154831E0,-1.5981987E0,8.7807876E-1,-1.7803277E0,-1.2621926E0,-8.068959E-1,1.3121958E0,-1.5730727E0,4.714471E-2,-3.7944937E-1,1.1214768E0,-1.1058598E-1,5.6631897E-2,1.3188015E0,-7.6099545E-1,-1.3748908E0,3.3656546E-1,5.5748157E-2,5.396062E-3,6.62457E-1,1.291475E0,1.4325898E0,1.1496605E0,-7.192959E-2,-3.1148214E-2,-2.1251585E-1,1.3080115E0,-1.7827803E0,2.8548194E-2,-7.354866E-2,-3.1870842E-1,6.372255E-3,-5.7318263E-2,1.4506866E0,-6.673407E-3,-7.0517465E-2,1.3449399E-2,4.8642285E-2,-1.1156683E0,3.489279E-2,1.2071673E0,5.3955287E-1,-6.005874E-1,1.3580923E0,1.939163E-2,-1.8427958E-3,-4.6591323E-2,-1.54618E0,-7.4738514E-1,1.0375975E0,-5.549015E-2,-3.4271288E-1,1.0916795E0,5.526822E-1,1.3331783E0,7.165194E-1,1.4356767E0,1.2993903E0,7.4721944E-1,-1.3660486E0,4.4981483E-2,5.7037547E-2,2.634263E-3,-1.784959E0,1.9449536E-3,2.8999683E-1,-1.6342019E0,1.9192617E-2,6.063838E-2,-6.1557062E-2,-1.1881902E-3,-7.774713E-1,5.4776645E-1,1.0361011E0,5.7412576E-2,-3.0907653E-2,3.856053E-2,-4.4809163E-2,1.867012E-2,5.6541715E-2,2.2504313E-2,-6.933264E-2,-4.2657375E-2,1.3258134E-2,-5.873576E-2,1.6317446E-2,4.6938784E-2,-3.0869024E-2,4.127053E-2,5.2138127E-2,-2.4879336E-2,4.62155E-2,-1.900178E-2,5.5585936E-2,2.4998108E-2,-4.7048554E-2,5.3981647E-2,5.2770995E-2,5.807945E-2,5.2999247E-2,-0E0,5.3282995E-2,1.7747298E-2,-6.3631535E-2,-2.221514E-2,-7.4374534E-2,-6.94161E-2,-1.3032629E-2,3.9654613E-2,-2.2086987E-2,-7.3700696E-2,1.2405967E-2,-6.1451524E-2,-9.252218E-3,5.3331256E-2,-4.400041E-2,4.4675928E-2],"categories":[],"categories_nodes":[],"categories_segments":[],"categories_sizes":[],"default_left":[0,0,0,0,0,0,0,0,0,0,0,0,0,0,0,0,0,0,0,0,0,0,0,0,0,0,0,0,0,0,0,0,0,0,0,0,0,0,0,0,0,0,0,0,0,0,0,0,0,0,0,0,0,0,0,0,0,0,0,0,0,0,0,0,0,0,0,0,0,0,0,0,0,0,0,0,0,0,0,0,0,0,0,0,0,0,0,0,0,0,0,0,0,0,0,0,0,0,0,0,0,0,0,0,0,0,0,0,0,0,0,0,0,0,0,0,0,0,0,0,0,0,0,0,0,0,0,0,0,0,0,0,0,0,0,0,0],"id":6,"left_children":[1,3,5,7,9,11,13,15,17,19,21,23,25,27,29,31,33,35,37,39,41,43,45,47,49,51,53,55,-1,57,59,61,-1,63,65,67,69,-1,-1,71,73,75,77,-1,-1,79,81,83,-1,-1,85,-1,-1,87,-1,-1,-1,-1,89,91,93,95,97,99,-1,-1,-1,101,103,105,-1,107,109,111,113,115,117,119,121,123,-1,-1,-1,125,-1,127,129,-1,-1,-1,-1,131,133,135,-1,-1,-1,-1,-1,-1,-1,-1,-1,-1,-1,-1,-1,-1,-1,-1,-1,-1,-1,-1,-1,-1,-1,-1,-1,-1,-1,-1,-1,-1,-1,-1,-1,-1,-1,-1,-1,-1,-1,-1,-1,-1,-1],"loss_changes":[1.1204284E4,1.4682651E3,1.2196377E3,3.089063E2,8.123486E1,2.4824365E2,1.4873218E2,2.674857E1,6.0827698E1,2.7562988E1,7.236145E1,2.8708008E1,2.1312824E1,2.7951893E1,2.602208E1,3.1631634E1,2.0075249E1,4.353302E1,2.1913004E0,1.6574005E1,1.1890137E1,1.0543404E0,1.967737E1,1.5889648E1,6.777286E1,3.9298284E0,6.3299828E0,1.1645714E1,0E0,1.6329575E1,1.6949661E1,1.9097256E1,0E0,9.5028687E-1,1.3752942E0,2.6974274E1,2.1075972E1,0E0,0E0,3.7699642E1,1.9542084E0,5.0473633E0,1.0203445E1,0E0,0E0,2.0726788E1,4.1094055E0,9.717285E0,0E0,0E0,3.9919056E1,0E0,0E0,7.694206E-1,0E0,0E0,0E0,0E0,4.0685863E0,6.465975E0,4.911209E0,1.5110697E1,1.9530867E1,1.2825089E0,0E0,0E0,0E0,1.6384155E1,4.6212055E1,4.0567112E-1,0E0,1.641259E1,2.2948273E1,4.8475924E0,2.4348297E0,1.8799591E1,3.1845703E0,4.59639E0,8.77187E0,2.06913E-1,0E0,0E0,0E0,5.1430664E0,0E0,1.5229953E1,2.289341E0,0E0,0E0,0E0,0E0,5.5259056E0,6.2828875E0,1.868895E1,0E0,0E0,0E0,0E0,0E0,0E0,0E0,0E0,0E0,0E0,0E0,0E0,0E0,0E0,0E0,0E0,0E0,0E0,0E0,0E0,0E0,0E0,0E0,0E0,0E0,0E0,0E0,0E0,0E0,0E0,0E0,0E0,0E0,0E0,0E0,0E0,0E0,0E0,0E0,0E0,0E0,0E0,0E0],"parents":[2147483647,0,0,1,1,2,2,3,3,4,4,5,5,6,6,7,7,8,8,9,9,10,10,11,11,12,12,13,13,14,14,15,15,16,16,17,17,18,18,19,19,20,20,21,21,22,22,23,23,24,24,25,25,26,26,27,27,29,29,30,30,31,31,33,33,34,34,35,35,36,36,39,39,40,40,41,41,42,42,45,45,46,46,47,47,50,50,53,53,58,58,59,59,60,60,61,61,62,62,63,63,67,67,68,68,69,69,71,71,72,72,73,73,74,74,75,75,76,76,77,77,78,78,79,79,83,83,85,85,86,86,91,91,92,92,93,93],"right_children":[2,4,6,8,10,12,14,16,18,20,22,24,26,28,30,32,34,36,38,40,42,44,46,48,50,52,54,56,-1,58,60,62,-1,64,66,68,70,-1,-1,72,74,76,78,-1,-1,80,82,84,-1,-1,86,-1,-1,88,-1,-1,-1,-1,90,92,94,96,98,100,-1,-1,-1,102,104,106,-1,108,110,112,114,116,118,120,122,124,-1,-1,-1,126,-1,128,130,-1,-1,-1,-1,132,134,136,-1,-1,-1,-1,-1,-1,-1,-1,-1,-1,-1,-1,-1,-1,-1,-1,-1,-1,-1,-1,-1,-1,-1,-1,-1,-1,-1,-1,-1,-1,-1,-1,-1,-1,-1,-1,-1,-1,-1,-1,-1,-1,-1],"split_conditions":[2.5892934E-1,1.7184468E-1,7.368421E-1,6.2794685E-2,1.5599686E-1,9.906286E-1,2.4284822E-1,6.770312E-1,8.888889E-1,2.5786528E-1,9.786683E-1,6.666667E-1,2.1321303E-1,9.549672E-1,9.889461E-1,9.90308E-3,5.44238E-2,2.985527E-3,1.02945246E-1,5.7258874E-1,3.0708647E-1,7.5E-1,5E-1,1E0,2.8542957E-1,1.9829415E-2,5E-1,1.9876854E-1,4.714471E-2,1.28E-16,2.7711982E-1,9.65E-16,5.6631897E-2,4.6241615E-2,4.8130597E-3,6.25E-2,1.9829415E-2,5.5748157E-2,5.396062E-3,5.956076E-1,5.8743935E-3,2.3269297E-1,3.34E-12,-7.192959E-2,-3.1148214E-2,6.0275394E-1,9.3606925E-1,7.5949365E-1,2.8548194E-2,-7.354866E-2,8.0678785E-1,6.372255E-3,-5.7318263E-2,4.5917463E-1,-6.673407E-3,-7.0517465E-2,1.3449399E-2,4.8642285E-2,7.9844964E-1,8.333333E-1,8.4326756E-1,3.738857E-2,2.985527E-3,2.0524758E-1,1.939163E-2,-1.8427958E-3,-4.6591323E-2,8.514287E-2,5.865545E-1,2.1562412E-1,-5.549015E-2,2.0501345E-1,9.4065256E-11,2.7443212E-3,9.1389436E-1,2.5429878E-1,1.327939E-1,9.9993145E-1,3.7616852E-1,3.8416064E-1,4.4981483E-2,5.7037547E-2,2.634263E-3,1E0,1.9449536E-3,2.7983677E-1,5.263158E-3,1.9192617E-2,6.063838E-2,-6.1557062E-2,-1.1881902E-3,2.4390245E-2,8.869961E-1,8.144143E-1,5.7412576E-2,-3.0907653E-2,3.856053E-2,-4.4809163E-2,1.867012E-2,5.6541715E-2,2.2504313E-2,-6.933264E-2,-4.2657375E-2,1.3258134E-2,-5.873576E-2,1.6317446E-2,4.6938784E-2,-3.0869024E-2,4.127053E-2,5.2138127E-2,-2.4879336E-2,4.62155E-2,-1.900178E-2,5.5585936E-2,2.4998108E-2,-4.7048554E-2,5.3981647E-2,5.2770995E-2,5.807945E-2,5.2999247E-2,-0E0,5.3282995E-2,1.7747298E-2,-6.3631535E-2,-2.221514E-2,-7.4374534E-2,-6.94161E-2,-1.3032629E-2,3.9654613E-2,-2.2086987E-2,-7.3700696E-2,1.2405967E-2,-6.1451524E-2,-9.252218E-3,5.3331256E-2,-4.400041E-2,4.4675928E-2],"split_indices":[11,2,3,12,6,15,2,8,3,2,6,3,2,15,1,1,12,1,5,8,2,3,7,5,2,6,2,5,0,1,2,1,0,12,5,5,6,0,0,3,11,3,1,0,0,3,2,12,0,0,8,0,0,3,0,0,0,0,3,3,15,2,1,15,0,0,0,2,15,11,0,12,1,11,8,12,12,15,8,2,0,0,0,7,0,12,5,0,0,0,0,5,11,11,0,0,0,0,0,0,0,0,0,0,0,0,0,0,0,0,0,0,0,0,0,0,0,0,0,0,0,0,0,0,0,0,0,0,0,0,0,0,0,0,0,0,0],"split_type":[0,0,0,0,0,0,0,0,0,0,0,0,0,0,0,0,0,0,0,0,0,0,0,0,0,0,0,0,0,0,0,0,0,0,0,0,0,0,0,0,0,0,0,0,0,0,0,0,0,0,0,0,0,0,0,0,0,0,0,0,0,0,0,0,0,0,0,0,0,0,0,0,0,0,0,0,0,0,0,0,0,0,0,0,0,0,0,0,0,0,0,0,0,0,0,0,0,0,0,0,0,0,0,0,0,0,0,0,0,0,0,0,0,0,0,0,0,0,0,0,0,0,0,0,0,0,0,0,0,0,0,0,0,0,0,0,0],"sum_hessian":[6.4430444E3,3.6866987E3,2.7563457E3,4.2053824E2,3.2661604E3,2.5292388E3,2.2710693E2,1.3264595E2,2.878923E2,3.210475E3,5.5685505E1,2.496235E3,3.300362E1,3.25257E1,1.9458124E2,7.4560745E1,5.808521E1,2.7812173E2,9.77055E0,1.7780331E2,3.0326716E3,1.5545449E1,4.0140053E1,2.3711653E3,1.2506986E2,4.9087076E0,2.8094912E1,2.9096638E1,3.4290626E0,1.1755286E1,1.8282594E2,5.791065E1,1.6650099E1,5.3715767E1,4.3694434E0,2.6284348E2,1.5278276E1,7.632294E0,2.1382556E0,8.533991E1,9.246341E1,2.844831E3,1.8784055E2,1.1437227E1,4.108222E0,1.1426919E1,2.8713135E1,2.3691606E3,2.004562E0,7.697735E1,4.8092518E1,2.160386E0,2.7483215E0,2.5768795E1,2.326116E0,2.6582298E1,2.5143402E0,3.4629402E0,8.292346E0,1.35522995E1,1.6927365E2,2.475726E1,3.315339E1,5.058442E1,3.1313493E0,2.068613E0,2.3008304E0,2.052055E2,5.7637962E1,1.11855135E1,4.0927625E0,2.5527405E1,5.9812508E1,5.8301353E0,8.663327E1,1.3351321E1,2.8314797E3,1.3509912E2,5.2741432E1,6.162968E0,5.263951E0,2.6014885E1,2.6982498E0,2.3664255E3,2.7352161E0,3.3359802E1,1.4732716E1,2.245915E0,2.352288E1,5.600384E0,2.6919615E0,4.9696894E0,8.58261E0,1.0015587E2,6.911778E1,5.79272E0,1.896454E1,2.2327324E1,1.0826064E1,4.6444275E1,4.140143E0,1.4559236E2,5.9613136E1,2.3250326E1,3.4387638E1,2.8262744E0,8.35924E0,1.9844625E1,5.68278E0,5.3498867E1,6.3136406E0,3.6580029E0,2.1721323E0,7.921383E1,7.4194446E0,3.0915446E0,1.0259777E1,3.5879214E2,2.4726877E3,1.3251076E2,2.5883584E0,1.6749847E1,3.5991585E1,3.9752522E0,2.1877162E0,9.3063367E2,1.4357919E3,1.7972523E1,1.53872795E1,3.0453494E0,1.16873665E1,2.2311895E0,2.7384999E0,4.599283E0,3.9833272E0,3.145413E0,9.701045E1],"tree_param":{"num_deleted":"0","num_feature":"45","num_nodes":"137","size_leaf_vector":"1"}},{"base_weights":[2.000104E-3,-1.454374E0,1.1547002E0,-1.6378174E0,5.916028E-1,5.151385E-1,1.3296945E0,-1.6720314E0,9.215361E-1,-1.0147352E0,8.4281117E-1,9.304789E-1,1.6243257E-1,2.9615954E-1,1.3464901E0,4.908395E-2,-1.6835274E0,-5.3076763E-2,1.2911917E0,5.306978E-1,-1.4421594E0,4.9901792E-1,5.6691904E-2,7.1230954E-1,1.3102223E0,-8.215908E-1,3.8990197E-1,-6.971418E-2,1.1679871E0,1.1323261E0,1.3832695E0,-1.7084252E0,-1.2204057E0,4.9286133E-1,5.801074E-2,5.0963216E-2,-3.6570515E-2,-1.598173E0,-1.296591E-2,-1.4614055E-1,8.2312965E-1,-9.663456E-1,1.0068616E0,1.3358781E0,6.326566E-3,-1.2050221E0,5.581101E-1,8.450586E-1,5.5399615E-2,-1.8761437E-2,1.3207427E0,-6.30632E-1,1.2094476E0,-3.3922095E-2,1.3872234E0,-1.7113465E0,4.266211E-2,-1.5198565E0,-5.5358523E-1,4.6265706E-2,-1.0581098E-2,-7.010749E-2,-1.5749939E-2,-4.5044702E-1,5.126883E-2,5.372567E-1,1.3452015E0,-1.3409162E0,5.0035E-2,1.0942944E0,-1.6795082E-1,5.4267492E-2,1.8999925E-2,-3.7337446E-1,-6.8837136E-2,1.1276524E0,-1.0065092E-1,5.042101E-1,1.1989931E0,9.457294E-1,-2.764005E-1,1.1385577E-2,5.554712E-2,-1.5283916E0,7.7078646E-1,1.279501E0,5.187119E-1,1.1176542E0,1.3987108E0,-6.910162E-2,-5.7664506E-2,-6.320854E-2,2.2135088E-2,-4.3735888E-2,1.2982543E-2,-3.8462497E-2,7.734202E-3,2.8251963E-2,-2.5912754E-2,1.7478406E-2,5.588448E-2,-6.510632E-2,-1.7792959E-2,4.699116E-2,1.2291511E-2,-5.416968E-2,5.021296E-2,-4.851646E-2,1.2558073E-2,5.125657E-2,1.4293611E-2,-3.0577455E-2,4.24694E-2,-3.3144232E-2,3.8115963E-2,1.297212E-2,5.3287838E-2,1.2959078E-3,4.9574364E-2,-3.4444775E-2,1.838017E-2,-2.149018E-2,-6.814334E-2,4.707822E-2,-3.0812582E-3,3.6827806E-2,5.416041E-2,5.150731E-2,2.1056023E-3,-6.519414E-2,5.2955154E-2,5.6103673E-2,4.1098174E-2],"categories":[],"categories_nodes":[],"categories_segments":[],"categories_sizes":[],"default_left":[0,0,0,0,0,0,0,0,0,0,0,0,0,0,0,0,0,0,0,0,0,0,0,0,0,0,0,0,0,0,0,0,0,0,0,0,0,0,0,0,0,0,0,0,0,0,0,0,0,0,0,0,0,0,0,0,0,0,0,0,0,0,0,0,0,0,0,0,0,0,0,0,0,0,0,0,0,0,0,0,0,0,0,0,0,0,0,0,0,0,0,0,0,0,0,0,0,0,0,0,0,0,0,0,0,0,0,0,0,0,0,0,0,0,0,0,0,0,0,0,0,0,0,0,0,0,0,0,0,0,0,0,0],"id":7,"left_children":[1,3,5,7,9,11,13,15,17,19,21,23,25,27,29,-1,31,-1,33,35,37,39,-1,41,43,45,47,-1,49,51,53,55,57,59,-1,-1,-1,61,-1,63,65,67,69,71,-1,73,75,77,79,-1,81,83,85,-1,87,89,-1,91,93,-1,-1,-1,-1,95,-1,97,99,101,-1,103,105,-1,-1,107,-1,109,111,113,115,117,119,-1,-1,121,123,125,127,129,131,-1,-1,-1,-1,-1,-1,-1,-1,-1,-1,-1,-1,-1,-1,-1,-1,-1,-1,-1,-1,-1,-1,-1,-1,-1,-1,-1,-1,-1,-1,-1,-1,-1,-1,-1,-1,-1,-1,-1,-1,-1,-1,-1,-1],"loss_changes":[1.0728785E4,1.06079E3,3.9839453E2,2.2854004E2,9.4865654E1,1.1226927E2,4.8046387E1,8.7354004E1,3.0627693E1,2.1936207E1,3.9017426E1,2.8061493E1,9.355874E1,8.402716E1,1.98833E1,0E0,2.7003418E1,0E0,2.9547691E0,9.358141E0,3.7058067E0,2.6972147E1,0E0,1.12813446E2,3.3999329E0,4.225825E1,5.1515118E1,0E0,8.947895E0,5.6525818E1,2.1930664E1,2.1469727E1,2.5648926E1,3.7507114E0,0E0,0E0,0E0,3.1679993E0,0E0,1.9429138E1,1.18514595E1,3.0108889E1,2.009665E1,1.3980713E0,0E0,2.5659714E1,6.85536E0,1.6538261E1,5.8448322E1,0E0,1.5820389E0,2.361694E1,1.8170044E1,0E0,5.439453E0,7.7333984E0,0E0,1.2438324E1,2.0867968E1,0E0,0E0,0E0,0E0,1.2345666E1,0E0,1.1891035E1,5.954399E-1,6.7253494E0,0E0,1.0880066E1,2.560708E1,0E0,0E0,1.4901126E1,0E0,5.216503E-1,7.7582197E0,4.5640144E1,7.503975E0,1.4239986E1,6.240738E1,0E0,0E0,8.076744E-1,2.8046093E0,8.041748E0,1.3415344E1,5.9401283E1,1.546875E0,0E0,0E0,0E0,0E0,0E0,0E0,0E0,0E0,0E0,0E0,0E0,0E0,0E0,0E0,0E0,0E0,0E0,0E0,0E0,0E0,0E0,0E0,0E0,0E0,0E0,0E0,0E0,0E0,0E0,0E0,0E0,0E0,0E0,0E0,0E0,0E0,0E0,0E0,0E0,0E0,0E0,0E0,0E0,0E0],"parents":[2147483647,0,0,1,1,2,2,3,3,4,4,5,5,6,6,7,7,8,8,9,9,10,10,11,11,12,12,13,13,14,14,16,16,18,18,19,19,20,20,21,21,23,23,24,24,25,25,26,26,28,28,29,29,30,30,31,31,32,32,33,33,37,37,39,39,40,40,41,41,42,42,43,43,45,45,46,46,47,47,48,48,50,50,51,51,52,52,54,54,55,55,57,57,58,58,63,63,65,65,66,66,67,67,69,69,70,70,73,73,75,75,76,76,77,77,78,78,79,79,80,80,83,83,84,84,85,85,86,86,87,87,88,88],"right_children":[2,4,6,8,10,12,14,16,18,20,22,24,26,28,30,-1,32,-1,34,36,38,40,-1,42,44,46,48,-1,50,52,54,56,58,60,-1,-1,-1,62,-1,64,66,68,70,72,-1,74,76,78,80,-1,82,84,86,-1,88,90,-1,92,94,-1,-1,-1,-1,96,-1,98,100,102,-1,104,106,-1,-1,108,-1,110,112,114,116,118,120,-1,-1,122,124,126,128,130,132,-1,-1,-1,-1,-1,-1,-1,-1,-1,-1,-1,-1,-1,-1,-1,-1,-1,-1,-1,-1,-1,-1,-1,-1,-1,-1,-1,-1,-1,-1,-1,-1,-1,-1,-1,-1,-1,-1,-1,-1,-1,-1,-1,-1],"split_conditions":[9.8853326E-1,7.368421E-1,6E-1,9.9855655E-1,1E0,2.3958978E-16,2.080245E-1,1.8870945E-5,4.9449503E-1,6.24E-13,9.602381E-1,3.782925E-2,1.4355293E-2,7.1428575E-2,1.3673839E-1,4.908395E-2,6.666667E-1,-5.3076763E-2,5.196715E-1,6.972009E-1,8.5E-1,9.964469E-1,5.6691904E-2,5.227892E-1,9.9187565E-1,5.882353E-2,9.65E-16,-6.971418E-2,6.303939E-1,3.5520187E-1,1.757469E-3,1E0,1E0,2.9235035E-1,5.801074E-2,5.0963216E-2,-3.6570515E-2,9.610572E-1,-1.296591E-2,6.666667E-2,2.7983677E-1,8.306094E-4,9.440388E-1,4.062578E-1,6.326566E-3,1.1930752E-1,5.0017744E-1,5.533824E-2,9.0991504E-2,-1.8761437E-2,1.412123E-1,6.0606062E-2,1.48E-11,-3.3922095E-2,1.0989011E-2,3.0713072E-1,4.266211E-2,2.1866332E-1,2.1276595E-2,4.6265706E-2,-1.0581098E-2,-7.010749E-2,-1.5749939E-2,8.5714287E-1,5.126883E-2,1.2659976E-1,7.4654377E-1,5.4754096E-1,5.0035E-2,3.2278994E-1,1.64E-14,5.4267492E-2,1.8999925E-2,5.8430105E-1,-6.8837136E-2,1.1E-11,2.4999228E-1,4.8679426E-1,2.2229682E-1,5.247682E-1,7.1428575E-2,1.1385577E-2,5.554712E-2,1.52E-16,1.02566935E-1,7.567568E-1,9.971832E-1,5.7001984E-1,4.5571136E-1,-6.910162E-2,-5.7664506E-2,-6.320854E-2,2.2135088E-2,-4.3735888E-2,1.2982543E-2,-3.8462497E-2,7.734202E-3,2.8251963E-2,-2.5912754E-2,1.7478406E-2,5.588448E-2,-6.510632E-2,-1.7792959E-2,4.699116E-2,1.2291511E-2,-5.416968E-2,5.021296E-2,-4.851646E-2,1.2558073E-2,5.125657E-2,1.4293611E-2,-3.0577455E-2,4.24694E-2,-3.3144232E-2,3.8115963E-2,1.297212E-2,5.3287838E-2,1.2959078E-3,4.9574364E-2,-3.4444775E-2,1.838017E-2,-2.149018E-2,-6.814334E-2,4.707822E-2,-3.0812582E-3,3.6827806E-2,5.416041E-2,5.150731E-2,2.1056023E-3,-6.519414E-2,5.2955154E-2,5.6103673E-2,4.1098174E-2],"split_indices":[0,3,3,15,1,15,8,11,7,1,15,5,15,5,12,0,3,0,3,6,3,11,0,8,6,5,1,0,3,8,5,5,11,8,0,0,0,0,0,5,12,1,8,5,0,12,3,5,12,0,5,5,1,0,5,15,0,4,5,0,0,0,0,3,0,4,3,3,0,12,1,0,0,8,0,1,11,8,8,8,5,0,0,1,12,3,0,8,5,0,0,0,0,0,0,0,0,0,0,0,0,0,0,0,0,0,0,0,0,0,0,0,0,0,0,0,0,0,0,0,0,0,0,0,0,0,0,0,0,0,0,0,0],"split_type":[0,0,0,0,0,0,0,0,0,0,0,0,0,0,0,0,0,0,0,0,0,0,0,0,0,0,0,0,0,0,0,0,0,0,0,0,0,0,0,0,0,0,0,0,0,0,0,0,0,0,0,0,0,0,0,0,0,0,0,0,0,0,0,0,0,0,0,0,0,0,0,0,0,0,0,0,0,0,0,0,0,0,0,0,0,0,0,0,0,0,0,0,0,0,0,0,0,0,0,0,0,0,0,0,0,0,0,0,0,0,0,0,0,0,0,0,0,0,0,0,0,0,0,0,0,0,0,0,0,0,0,0,0],"sum_hessian":[6.388907E3,2.8224924E3,3.5664148E3,2.590477E3,2.3201532E2,7.671574E2,2.7992573E3,2.5566846E3,3.3792538E1,3.0912096E1,2.0110323E2,3.5141528E2,4.1574213E2,4.5155403E1,2.7541018E3,9.6459465E0,2.5470386E3,4.3673997E0,2.9425137E1,6.5941434E0,2.4317953E1,1.27090454E2,7.4012764E1,2.2518285E2,1.26232445E2,7.748663E1,3.382555E2,1.31909275E1,3.1964478E1,4.087113E2,2.3453906E3,2.4143364E3,1.327021E2,5.674489E0,2.3750648E1,4.477889E0,2.1162543E0,2.0884668E1,3.4332852E0,4.257789E1,8.4512566E1,3.322321E1,1.9195963E2,1.2324155E2,2.9908967E0,6.0791283E1,1.6695354E1,1.4251305E2,1.9574246E2,2.495546E0,2.9468931E1,1.6774786E1,3.9193652E2,3.726265E0,2.3416643E3,2.4122163E3,2.120084E0,9.059096E1,4.2111145E1,2.8135548E0,2.860934E0,1.8032999E1,2.851668E0,3.5719826E1,6.858061E0,5.604462E1,2.8467945E1,2.879842E1,4.42479E0,1.7880605E2,1.3153586E1,1.1965712E2,3.5844297E0,2.4007864E1,3.6783417E1,8.653691E0,8.041663E0,7.397767E1,6.8535385E1,5.2722256E1,1.430202E2,2.2232473E0,2.7245684E1,1.0213007E1,6.5617795E0,3.5494174E2,3.6994774E1,1.0008319E2,2.241581E3,2.270149E3,1.420675E2,8.8306175E1,2.284784E0,2.5998322E1,1.6112823E1,1.9723259E1,1.5996567E1,4.9475666E1,6.5689545E0,2.1524236E0,2.6315521E1,2.1114098E1,7.6843224E0,1.616544E2,1.7151646E1,7.2388287E0,5.9147577E0,1.0528545E1,1.3479318E1,6.5524426E0,2.1012492E0,5.3913155E0,2.650348E0,1.8362593E1,5.5615074E1,9.6107645E0,5.8924618E1,1.3179253E1,3.9543E1,7.9677536E1,6.334267E1,2.2306588E0,7.9823484E0,4.2536783E0,2.3081012E0,6.3560287E1,2.9138147E2,1.3214614E1,2.378016E1,6.4718127E0,9.3611374E1,2.2153755E3,2.6205767E1],"tree_param":{"num_deleted":"0","num_feature":"45","num_nodes":"133","size_leaf_vector":"1"}},{"base_weights":[4.1383826E-3,-1.4084154E0,1.1250731E0,-1.582726E0,6.6946864E-1,-7.0211667E-1,1.3300703E0,-1.6198324E0,5.572286E-1,-1.3759464E0,9.6418643E-1,4.8120815E-1,-1.2592076E0,8.0094916E-1,1.3611684E0,4.8149996E-2,-1.6309646E0,1.2797638E0,-1.3092121E0,-1.5539879E0,1.2287861E-2,1.0769405E0,-7.875978E-1,5.5501718E-2,1.3484049E-1,-1.3309432E0,4.1526777E-1,1.1263213E0,4.87687E-1,1.3800602E0,1.0987989E0,-1.6504232E0,-8.8157415E-1,1.4145027E0,-1.8536374E-3,-6.1976723E-2,-8.995884E-3,-1.673838E0,-2.2900946E-2,5.91092E-1,1.2517724E0,3.2530826E-2,-1.2096405E0,-3.3448073E-1,9.326468E-1,4.5102254E-2,-1.3747585E0,-3.305572E-2,4.942255E-2,4.6828294E-1,1.2943528E0,-4.4971493E-1,9.411755E-1,6.116168E-1,1.3834122E0,6.8464017E-1,1.1801395E0,-1.6753054E0,-1.430023E0,-6.930876E-2,2.5697264E-1,5.9018783E-2,1.584284E-2,-7.133821E-2,-2.211616E-2,5.1544376E-2,2.3190223E-1,1.1052473E0,5.6305237E-2,-1.9255133E-2,-5.9689846E-2,-6.863092E-1,9.613246E-1,1.2181537E0,-4.213857E-2,-1.4407392E0,2.1784924E-1,5.240626E-2,-5.561616E-1,5.5372126E-2,5.9918046E-1,4.606496E-2,-8.396143E-1,-6.686447E-2,1.0791633E0,-4.7648877E-2,5.2194614E-2,1.1688044E0,1.3956304E0,3.9010036E-1,5.214177E-2,1.275592E0,6.596339E-1,-6.718151E-2,-1.8763587E-2,-6.7990206E-2,-2.962644E-2,5.037315E-2,-4.364125E-2,3.1952076E-2,-4.335452E-2,2.1740012E-2,4.915526E-2,-3.7082853E-3,-5.9232254E-2,5.591224E-2,-1.7267583E-2,5.2447107E-2,-0E0,-6.6675626E-2,-4.4263694E-2,4.7546446E-2,-1.0539421E-2,-4.986267E-2,1.4891281E-2,4.778821E-2,-8.816794E-3,-5.90623E-2,-0E0,3.3332553E-2,-2.8163297E-2,5.3602446E-2,2.6783891E-2,4.796638E-2,-0E0,1.048934E-2,5.5869345E-2,5.0112728E-2,1.5009048E-3,5.262142E-2,2.9271163E-2,4.3345887E-2,-1.1300543E-2],"categories":[],"categories_nodes":[],"categories_segments":[],"categories_sizes":[],"default_left":[0,0,0,0,0,0,0,0,0,0,0,0,0,0,0,0,0,0,0,0,0,0,0,0,0,0,0,0,0,0,0,0,0,0,0,0,0,0,0,0,0,0,0,0,0,0,0,0,0,0,0,0,0,0,0,0,0,0,0,0,0,0,0,0,0,0,0,0,0,0,0,0,0,0,0,0,0,0,0,0,0,0,0,0,0,0,0,0,0,0,0,0,0,0,0,0,0,0,0,0,0,0,0,0,0,0,0,0,0,0,0,0,0,0,0,0,0,0,0,0,0,0,0,0,0,0,0,0,0,0,0,0,0],"id":8,"left_children":[1,3,5,7,9,11,13,15,17,19,21,23,25,27,29,-1,31,33,35,37,-1,39,41,-1,43,45,47,49,51,53,55,57,59,61,-1,-1,-1,63,-1,65,67,-1,69,71,73,-1,75,-1,-1,77,79,81,83,85,87,89,91,93,95,-1,97,-1,-1,-1,-1,-1,99,101,-1,-1,-1,103,105,107,-1,109,111,-1,113,-1,115,-1,117,119,121,-1,-1,123,125,127,-1,129,131,-1,-1,-1,-1,-1,-1,-1,-1,-1,-1,-1,-1,-1,-1,-1,-1,-1,-1,-1,-1,-1,-1,-1,-1,-1,-1,-1,-1,-1,-1,-1,-1,-1,-1,-1,-1,-1,-1,-1,-1],"loss_changes":[9.983505E3,1.01156494E3,1.3178013E3,2.0540918E2,1.3183713E2,2.3486098E2,5.0711426E1,8.154834E1,6.178087E1,8.88612E0,3.8391098E1,3.5565273E1,2.9696472E1,1.7441765E1,1.3027344E1,0E0,3.505371E1,6.041031E0,2.8326988E0,1.7834511E0,0E0,1.4273148E1,9.137253E0,0E0,3.1800043E1,2.658957E1,1.1899899E1,8.775131E0,3.9860245E1,6.1137695E0,5.935364E0,1.0762207E1,6.4630104E1,1.0764694E0,0E0,0E0,0E0,1.4667091E0,0E0,1.1923643E1,1.1737213E0,0E0,1.1331892E0,2.5025387E1,1.9122995E1,0E0,2.4462402E1,0E0,0E0,1.7423779E1,3.2347794E0,2.0174946E1,8.914398E0,1.9055275E1,5.366211E0,5.948801E0,7.4288177E0,1.0231934E1,4.616919E1,0E0,4.06948E1,0E0,0E0,0E0,0E0,0E0,2.6135853E1,4.1735535E0,0E0,0E0,0E0,1.9854729E1,7.8632536E0,3.1371155E0,0E0,1.4483429E1,5.0337644E0,0E0,6.539116E0,0E0,5.0954475E0,0E0,1.3655968E1,5.404043E0,4.823662E0,0E0,0E0,5.432541E0,2.7338867E0,7.7832613E0,0E0,1.9327698E0,1.1824361E1,0E0,0E0,0E0,0E0,0E0,0E0,0E0,0E0,0E0,0E0,0E0,0E0,0E0,0E0,0E0,0E0,0E0,0E0,0E0,0E0,0E0,0E0,0E0,0E0,0E0,0E0,0E0,0E0,0E0,0E0,0E0,0E0,0E0,0E0,0E0,0E0,0E0,0E0,0E0,0E0],"parents":[2147483647,0,0,1,1,2,2,3,3,4,4,5,5,6,6,7,7,8,8,9,9,10,10,11,11,12,12,13,13,14,14,16,16,17,17,18,18,19,19,21,21,22,22,24,24,25,25,26,26,27,27,28,28,29,29,30,30,31,31,32,32,33,33,37,37,39,39,40,40,42,42,43,43,44,44,46,46,49,49,50,50,51,51,52,52,53,53,54,54,55,55,56,56,57,57,58,58,60,60,66,66,67,67,71,71,72,72,73,73,75,75,76,76,78,78,80,80,82,82,83,83,84,84,87,87,88,88,89,89,91,91,92,92],"right_children":[2,4,6,8,10,12,14,16,18,20,22,24,26,28,30,-1,32,34,36,38,-1,40,42,-1,44,46,48,50,52,54,56,58,60,62,-1,-1,-1,64,-1,66,68,-1,70,72,74,-1,76,-1,-1,78,80,82,84,86,88,90,92,94,96,-1,98,-1,-1,-1,-1,-1,100,102,-1,-1,-1,104,106,108,-1,110,112,-1,114,-1,116,-1,118,120,122,-1,-1,124,126,128,-1,130,132,-1,-1,-1,-1,-1,-1,-1,-1,-1,-1,-1,-1,-1,-1,-1,-1,-1,-1,-1,-1,-1,-1,-1,-1,-1,-1,-1,-1,-1,-1,-1,-1,-1,-1,-1,-1,-1,-1,-1,-1],"split_conditions":[9.8853326E-1,7.5E-1,1.4268881E-1,9.8375064E-1,2.3546705E-1,6.2794685E-2,2.4671997E-1,1.8870945E-5,1.9829415E-2,8.8905346E-1,1.4351521E-3,9.905799E-1,1.9624153E-1,7.3735766E-2,3.0708647E-1,4.8149996E-2,6.9616944E-1,1.2659976E-1,4.9449503E-1,8.888889E-1,1.2287861E-2,1.1355925E-1,2.9248512E-1,5.5501718E-2,6.83104E-1,9.900003E-1,5.328918E-1,5.2920985E-1,5.714286E-1,2.3269297E-1,4.1399005E-1,3.4542587E-1,2.8127226E-1,5.6663185E-1,-1.8536374E-3,-6.1976723E-2,-8.995884E-3,6.487753E-1,-2.2900946E-2,7.517354E-1,2.8051814E-1,3.2530826E-2,8.959834E-1,4.0088844E-2,5.44238E-2,4.5102254E-2,1.7179744E-1,-3.305572E-2,4.942255E-2,8.595702E-2,6.2836826E-1,3.5013795E-1,9.7630925E-2,2.5429878E-1,2.800864E-1,4.2874593E-1,4.062578E-1,9.777825E-1,1E0,-6.930876E-2,3.069653E-1,5.9018783E-2,1.584284E-2,-7.133821E-2,-2.211616E-2,5.1544376E-2,2.2650853E-1,9.9192125E-1,5.6305237E-2,-1.9255133E-2,-5.9689846E-2,1.0071493E-5,3.488319E-2,9.390875E-1,-4.213857E-2,5.723714E-2,6.3003056E-2,5.240626E-2,5.9191316E-2,5.5372126E-2,2.480592E-1,4.606496E-2,5.3544474E-1,4.5697585E-1,5.18899E-1,-4.7648877E-2,5.2194614E-2,9.440388E-1,2.6446838E-2,7.527557E-2,5.214177E-2,9.766921E-1,3.7616852E-1,-6.718151E-2,-1.8763587E-2,-6.7990206E-2,-2.962644E-2,5.037315E-2,-4.364125E-2,3.1952076E-2,-4.335452E-2,2.1740012E-2,4.915526E-2,-3.7082853E-3,-5.9232254E-2,5.591224E-2,-1.7267583E-2,5.2447107E-2,-0E0,-6.6675626E-2,-4.4263694E-2,4.7546446E-2,-1.0539421E-2,-4.986267E-2,1.4891281E-2,4.778821E-2,-8.816794E-3,-5.90623E-2,-0E0,3.3332553E-2,-2.8163297E-2,5.3602446E-2,2.6783891E-2,4.796638E-2,-0E0,1.048934E-2,5.5869345E-2,5.0112728E-2,1.5009048E-3,5.262142E-2,2.9271163E-2,4.3345887E-2,-1.1300543E-2],"split_indices":[0,3,2,15,2,12,2,11,6,15,0,0,4,12,2,0,3,4,7,3,0,12,8,0,8,0,3,8,3,3,2,12,2,12,0,0,0,15,0,11,15,0,0,15,12,0,5,0,0,11,3,8,12,12,2,12,5,0,7,0,2,0,0,0,0,0,15,11,0,0,0,15,12,8,0,2,11,0,12,0,11,0,8,8,8,0,0,8,12,12,0,2,8,0,0,0,0,0,0,0,0,0,0,0,0,0,0,0,0,0,0,0,0,0,0,0,0,0,0,0,0,0,0,0,0,0,0,0,0,0,0,0,0],"split_type":[0,0,0,0,0,0,0,0,0,0,0,0,0,0,0,0,0,0,0,0,0,0,0,0,0,0,0,0,0,0,0,0,0,0,0,0,0,0,0,0,0,0,0,0,0,0,0,0,0,0,0,0,0,0,0,0,0,0,0,0,0,0,0,0,0,0,0,0,0,0,0,0,0,0,0,0,0,0,0,0,0,0,0,0,0,0,0,0,0,0,0,0,0,0,0,0,0,0,0,0,0,0,0,0,0,0,0,0,0,0,0,0,0,0,0,0,0,0,0,0,0,0,0,0,0,0,0,0,0,0,0,0,0],"sum_hessian":[6.3032007E3,2.7886802E3,3.5145208E3,2.573112E3,2.1556813E2,3.542341E2,3.1602866E3,2.52954E3,4.357193E1,2.664401E1,1.8892412E2,1.1337319E2,2.4086092E2,1.7709299E2,2.9831936E3,9.477801E0,2.5200623E3,3.1677042E1,1.1894888E1,2.421836E1,2.4256508E0,1.779149E2,1.1009224E1,3.0436304E1,8.293688E1,2.3122017E2,9.640752E0,8.543774E1,9.165524E1,2.7784878E3,2.0470584E2,2.454981E3,6.5081276E1,2.8763298E1,2.9137454E0,9.311066E0,2.5838223E0,2.0863327E1,3.355033E0,4.83912E1,1.295237E2,2.054037E0,8.955187E0,5.2505287E1,3.0431597E1,3.5755806E0,2.2764458E2,3.7838686E0,5.856883E0,1.8270296E1,6.716744E1,2.9814264E1,6.184098E1,1.2993688E1,2.7654941E3,3.535201E1,1.6935382E2,2.1996006E3,2.5538037E2,3.699262E1,2.8088654E1,2.662262E1,2.1406784E0,1.8385168E1,2.4781587E0,1.5474678E1,3.2916523E1,7.1262085E1,5.8261612E1,3.3582733E0,5.596914E0,4.1724155E1,1.0781133E1,2.6988907E1,3.4426897E0,2.1874046E2,8.904119E0,9.929279E0,8.341017E0,5.846706E1,8.700382E0,5.4050975E0,2.4409166E1,7.420784E0,5.4420197E1,3.369226E0,9.624462E0,1.5461203E2,2.610882E3,2.5166851E1,1.0185158E1,1.4172157E2,2.7632257E1,2.191436E3,8.164646E0,1.8240038E2,7.2979996E1,1.6189985E1,1.1898669E1,2.3332554E1,9.583969E0,1.3974073E1,5.7288013E1,2.459257E1,1.7131586E1,8.261008E0,2.5201244E0,2.4983107E1,2.005802E0,1.2789378E2,9.084668E1,2.5331705E0,6.3709483E0,4.649008E0,3.692009E0,4.844611E0,3.855771E0,1.3479359E1,1.0929809E1,2.8831608E0,4.537623E0,3.170666E1,2.2713535E1,1.506114E2,4.000635E0,2.8593388E0,2.6080227E3,6.478285E0,1.8688566E1,1.3053096E2,1.1190605E1,1.9025696E1,8.606562E0],"tree_param":{"num_deleted":"0","num_feature":"45","num_nodes":"133","size_leaf_vector":"1"}},{"base_weights":[9.637371E-3,-1.3577251E0,1.1118945E0,-1.5506616E0,4.337723E-1,4.7209385E-1,1.2897948E0,4.6736956E-2,-1.5606674E0,-1.0389712E0,7.0428324E-1,1.6830382E-1,7.746174E-1,3.2591608E-1,1.3074052E0,-1.5886453E0,-1.1377078E0,3.6843267E-1,-1.3326509E0,5.3814076E-2,3.6481383E-1,7.1914315E-1,-2.2859615E-1,8.316846E-1,-4.037099E-1,-7.8932595E-1,5.5100873E-2,1.1438152E0,1.3385243E0,-1.3868171E0,-1.6381618E0,-7.648561E-1,-6.700706E-2,4.4791978E-2,-3.900121E-2,-1.4364779E0,-4.5660944E-3,-3.3513495E-1,6.39746E-1,8.535564E-1,1.6997088E-2,-4.2161542E-1,8.8916713E-1,8.7914926E-1,-5.505784E-1,-5.909974E-2,4.5107096E-2,-7.755883E-2,-1.3016163E0,-2.8474126E-2,1.1549624E0,5.391906E-2,1.1717637E0,-1.636023E0,6.0597498E-2,-6.751242E-2,-1.5529888E0,8.542727E-1,-9.77295E-1,-6.829237E-2,-7.989672E-1,2.3673944E-2,-5.224639E-2,-1.535662E-1,8.835152E-1,8.962222E-1,-3.4975E-2,-2.529452E-1,8.688751E-1,-5.358101E-1,4.9575213E-2,1.22906E0,-5.1764198E-2,7.4743295E-1,1.1725806E0,3.572683E-2,-1.1452703E0,-7.4253446E-1,5.358286E-1,-6.3024946E-2,-2.066111E-2,1.2428962E0,8.980901E-1,5.5721056E-1,5.48754E-2,-6.775666E-2,-5.4809574E-2,-9.665832E-3,4.7379747E-2,-3.367914E-2,-6.264293E-2,-0E0,4.9743727E-2,-1.2232577E-2,-5.0059393E-2,4.0951795E-3,-4.720211E-2,1.23263905E-2,-4.4069447E-2,-1.4586076E-2,4.7037628E-2,2.6697934E-2,5.336924E-2,7.863216E-3,4.0631413E-2,7.854621E-3,-2.891551E-2,3.8877176E-3,4.6661258E-2,-1.6788745E-2,-7.7064395E-2,5.1255144E-2,2.0044692E-2,2.7188227E-2,5.4278083E-2,5.6158636E-2,3.825677E-2,-5.9114534E-2,3.252414E-4,-3.7341647E-2,-1.2043031E-2,4.44669E-2,-5.4615852E-3,5.0687846E-2,2.1509174E-2,2.2076378E-2,4.0463805E-2,4.754719E-3,5.1039264E-2],"categories":[],"categories_nodes":[],"categories_segments":[],"categories_sizes":[],"default_left":[0,0,0,0,0,0,0,0,0,0,0,0,0,0,0,0,0,0,0,0,0,0,0,0,0,0,0,0,0,0,0,0,0,0,0,0,0,0,0,0,0,0,0,0,0,0,0,0,0,0,0,0,0,0,0,0,0,0,0,0,0,0,0,0,0,0,0,0,0,0,0,0,0,0,0,0,0,0,0,0,0,0,0,0,0,0,0,0,0,0,0,0,0,0,0,0,0,0,0,0,0,0,0,0,0,0,0,0,0,0,0,0,0,0,0,0,0,0,0,0,0,0,0,0,0,0,0,0,0],"id":9,"left_children":[1,3,5,7,9,11,13,-1,15,17,19,21,23,25,27,29,31,33,35,-1,37,39,41,43,45,47,-1,49,51,53,55,57,-1,-1,-1,59,-1,61,63,65,67,69,71,73,75,-1,-1,77,79,-1,81,-1,83,85,87,-1,89,91,93,-1,95,97,-1,99,101,103,-1,105,107,109,-1,111,-1,113,115,-1,117,119,121,-1,-1,123,125,127,-1,-1,-1,-1,-1,-1,-1,-1,-1,-1,-1,-1,-1,-1,-1,-1,-1,-1,-1,-1,-1,-1,-1,-1,-1,-1,-1,-1,-1,-1,-1,-1,-1,-1,-1,-1,-1,-1,-1,-1,-1,-1,-1,-1,-1],"loss_changes":[9.34677E3,9.57479E2,3.900337E2,6.985303E1,1.0819882E2,6.858609E1,4.5001953E1,0E0,2.7389648E1,1.8037441E1,4.9090508E1,8.2204254E1,2.5575027E1,5.9347256E1,1.1646484E1,2.0742188E1,3.0188156E1,9.195261E0,4.13488E0,0E0,2.9291914E1,1.4753639E1,4.7495907E1,2.3991806E1,3.1137331E1,8.7579975E0,0E0,9.73822E0,1.651123E0,1.6854132E2,4.95166E0,3.3656635E1,0E0,0E0,0E0,3.9585114E0,0E0,1.5183321E1,2.1252892E1,1.0515221E1,6.359197E0,3.6098183E1,2.5656029E1,1.2319E1,1.1714701E1,0E0,0E0,5.097633E0,2.032137E0,0E0,8.309326E0,0E0,1.4628662E1,3.498291E0,2.3966259E1,0E0,4.962036E0,3.8747072E0,1.5082314E1,0E0,4.217871E0,1.0631476E1,0E0,7.7380652E0,7.039589E0,1.04986725E1,0E0,4.577172E0,1.2933512E0,2.7357105E1,0E0,2.696724E-1,0E0,8.86647E0,3.6888885E0,0E0,3.7213154E0,1.0154176E-1,2.7542915E0,0E0,0E0,4.5363464E0,3.7148361E0,1.0086413E1,0E0,0E0,0E0,0E0,0E0,0E0,0E0,0E0,0E0,0E0,0E0,0E0,0E0,0E0,0E0,0E0,0E0,0E0,0E0,0E0,0E0,0E0,0E0,0E0,0E0,0E0,0E0,0E0,0E0,0E0,0E0,0E0,0E0,0E0,0E0,0E0,0E0,0E0,0E0,0E0,0E0,0E0,0E0,0E0,0E0],"parents":[2147483647,0,0,1,1,2,2,3,3,4,4,5,5,6,6,8,8,9,9,10,10,11,11,12,12,13,13,14,14,15,15,16,16,17,17,18,18,20,20,21,21,22,22,23,23,24,24,25,25,27,27,28,28,29,29,30,30,31,31,35,35,37,37,38,38,39,39,40,40,41,41,42,42,43,43,44,44,47,47,48,48,50,50,52,52,53,53,54,54,56,56,57,57,58,58,60,60,61,61,63,63,64,64,65,65,67,67,68,68,69,69,71,71,73,73,74,74,76,76,77,77,78,78,81,81,82,82,83,83],"right_children":[2,4,6,8,10,12,14,-1,16,18,20,22,24,26,28,30,32,34,36,-1,38,40,42,44,46,48,-1,50,52,54,56,58,-1,-1,-1,60,-1,62,64,66,68,70,72,74,76,-1,-1,78,80,-1,82,-1,84,86,88,-1,90,92,94,-1,96,98,-1,100,102,104,-1,106,108,110,-1,112,-1,114,116,-1,118,120,122,-1,-1,124,126,128,-1,-1,-1,-1,-1,-1,-1,-1,-1,-1,-1,-1,-1,-1,-1,-1,-1,-1,-1,-1,-1,-1,-1,-1,-1,-1,-1,-1,-1,-1,-1,-1,-1,-1,-1,-1,-1,-1,-1,-1,-1,-1,-1,-1,-1],"split_conditions":[9.8853326E-1,7.1428573E-1,6E-1,1.1268211E-2,1E0,2.4999228E-1,2.2229682E-1,4.6736956E-2,6.511628E-1,1.28E-16,7.6380366E-1,9.65E-16,9.390875E-1,7.619048E-1,7.1428573E-1,7.6380366E-1,1.9829415E-2,6.496992E-1,8.541667E-1,5.3814076E-2,7.647059E-1,2.4146761E-1,2.985527E-3,9.886719E-1,2.02E-13,1.842414E-1,5.5100873E-2,4.4274506E-1,9.4065256E-11,1E0,9.9951583E-1,7.517354E-1,-6.700706E-2,4.4791978E-2,-3.900121E-2,4.4030496E-1,-4.5660944E-3,7.293904E-1,9.7223496E-1,1.9829415E-2,5.4649717E-1,1.9624153E-1,1.9829415E-2,6.989368E-1,4.7234228E-1,-5.909974E-2,4.5107096E-2,1.6563619E-2,1.862729E-1,-2.8474126E-2,5.593289E-13,5.391906E-2,1.42E-9,5E-1,9.9998957E-1,-6.751242E-2,2.9248512E-1,9.4430053E-1,6.260912E-1,-6.829237E-2,7.567568E-1,1.2659976E-1,-5.224639E-2,1.9624153E-1,8.947368E-1,2.6092657E-1,-3.4975E-2,4.3841857E-1,4.8187348E-1,1.2659976E-1,4.9575213E-2,8.4541297E-1,-5.1764198E-2,2.4068134E-1,4.9892402E-1,3.572683E-2,7.533442E-1,6.666667E-1,9.512003E-2,-6.3024946E-2,-2.066111E-2,8.4191346E-1,1.4611183E-1,1E0,5.48754E-2,-6.775666E-2,-5.4809574E-2,-9.665832E-3,4.7379747E-2,-3.367914E-2,-6.264293E-2,-0E0,4.9743727E-2,-1.2232577E-2,-5.0059393E-2,4.0951795E-3,-4.720211E-2,1.23263905E-2,-4.4069447E-2,-1.4586076E-2,4.7037628E-2,2.6697934E-2,5.336924E-2,7.863216E-3,4.0631413E-2,7.854621E-3,-2.891551E-2,3.8877176E-3,4.6661258E-2,-1.6788745E-2,-7.7064395E-2,5.1255144E-2,2.0044692E-2,2.7188227E-2,5.4278083E-2,5.6158636E-2,3.825677E-2,-5.9114534E-2,3.252414E-4,-3.7341647E-2,-1.2043031E-2,4.44669E-2,-5.4615852E-3,5.0687846E-2,2.1509174E-2,2.2076378E-2,4.0463805E-2,4.754719E-3,5.1039264E-2],"split_indices":[0,3,3,11,1,11,8,0,3,1,11,1,8,3,3,11,6,6,3,0,3,11,1,6,1,11,0,7,1,7,11,11,0,0,0,0,0,8,11,6,3,4,6,8,3,0,0,11,8,0,1,0,1,7,1,0,8,1,8,0,3,4,0,4,3,8,0,8,8,4,0,8,0,4,3,0,8,3,11,0,0,8,11,3,0,0,0,0,0,0,0,0,0,0,0,0,0,0,0,0,0,0,0,0,0,0,0,0,0,0,0,0,0,0,0,0,0,0,0,0,0,0,0,0,0,0,0,0,0],"split_type":[0,0,0,0,0,0,0,0,0,0,0,0,0,0,0,0,0,0,0,0,0,0,0,0,0,0,0,0,0,0,0,0,0,0,0,0,0,0,0,0,0,0,0,0,0,0,0,0,0,0,0,0,0,0,0,0,0,0,0,0,0,0,0,0,0,0,0,0,0,0,0,0,0,0,0,0,0,0,0,0,0,0,0,0,0,0,0,0,0,0,0,0,0,0,0,0,0,0,0,0,0,0,0,0,0,0,0,0,0,0,0,0,0,0,0,0,0,0,0,0,0,0,0,0,0,0,0,0,0],"sum_hessian":[6.1994897E3,2.7668535E3,3.432636E3,2.4980183E3,2.6883536E2,7.477271E2,2.684909E3,8.697582E0,2.4893208E3,4.1218563E1,2.2761679E2,3.7402405E2,3.7370303E2,4.8625996E1,2.636283E3,2.332067E3,1.5725377E2,7.0133524E0,3.4205208E1,7.767474E1,1.4994205E2,1.5640155E2,2.1762251E2,3.568019E2,1.6901117E1,2.3673862E1,2.4952131E1,4.2788824E2,2.2083948E3,4.655444E2,1.8665225E3,9.4385796E1,6.2867985E1,4.652332E0,2.3610208E0,3.1278996E1,2.9262135E0,4.2121746E1,1.078203E2,1.3097137E2,2.5430172E1,1.861839E2,3.1438616E1,3.453785E2,1.1423411E1,9.99399E0,6.9071283E0,1.04715185E1,1.3202344E1,2.1261005E0,4.2576215E2,2.082664E3,1.2573058E2,3.9711127E2,6.8433136E1,1.166538E3,6.999846E2,1.0542541E1,8.3843254E1,2.066501E1,1.0613985E1,3.139386E1,1.0727887E1,2.5334045E1,8.248625E1,1.2834158E2,2.6297858E0,1.9755692E1,5.6744795E0,1.748972E2,1.1286693E1,2.7621367E1,3.8172488E0,2.4105917E2,1.0431933E2,3.1371677E0,8.286243E0,5.00167E0,5.469848E0,8.945813E0,4.2565317E0,3.1403293E2,1.117292E2,3.1937565E1,9.379302E1,3.21362E2,7.574926E1,5.447854E1,1.3954601E1,1.3967854E1,6.860167E2,3.5903563E0,6.9521837E0,2.502878E1,5.8814472E1,3.2933848E0,7.3206E0,2.5709852E1,5.6840067E0,2.2554077E1,2.7799695E0,5.7584015E1,2.4902235E1,1.9239466E1,1.0910213E2,1.0288369E1,9.467322E0,2.0422852E0,3.632194E0,1.626909E2,1.2206297E1,2.4931824E1,2.689543E0,2.190036E2,2.205557E1,4.7507885E1,5.681144E1,6.280577E0,2.0056663E0,2.5549984E0,2.4466717E0,2.6745834E0,2.7952645E0,3.026643E2,1.1368619E1,2.9253124E1,8.247608E1,2.064917E1,1.1288395E1],"tree_param":{"num_deleted":"0","num_feature":"45","num_nodes":"129","size_leaf_vector":"1"}},{"base_weights":[4.1487496E-3,-1.3222696E0,1.0876688E0,-1.5629252E0,-9.014526E-1,-5.6137806E-1,1.2997764E0,-1.5741189E0,-5.170658E-1,3.377831E-1,-1.4898794E0,8.92566E-1,-9.6167785E-1,8.9351153E-1,1.3225971E0,-1.6049117E0,-1.3715128E0,9.888997E-1,-1.3503674E0,-1.3058313E0,6.075976E-1,5.063805E-2,-1.5324743E0,3.7657216E-1,1.3212798E0,-1.05953E0,1.1760767E0,5.383402E-1,1.1979693E0,1.3406382E0,1.0660295E0,-6.4983785E-2,-1.4154927E0,-7.696062E-2,-1.4407924E0,1.1477323E-2,5.2555904E-2,-6.0708743E-2,-2.7487025E-2,-4.531569E-1,-1.5301199E0,8.125843E-3,1.1302215E0,-1.5492507E0,4.6898868E-2,4.7326155E-2,-2.533566E-1,5.4446783E-2,1.1597838E-2,-1.3714601E0,-4.7463936E-1,1.698166E-2,5.1389545E-2,1.1682636E0,-2.588989E-2,1.240062E0,3.32291E-1,1.2155956E0,5.435181E-2,1.200197E0,6.0559416E-1,-5.6065357E-1,-1.4729761E0,-1.0174485E0,4.5840353E-2,-1.1458125E0,-6.5946564E-2,-5.3886503E-2,3.922264E-2,-6.422753E-2,-1.2925174E-2,4.876145E-1,-9.3108034E-1,9.03232E-1,1.4192522E0,-1.6188735E0,-1.2573701E0,8.998363E-1,-8.696017E-1,-1.5465277E0,-1.9592257E-1,-2.7359495E-1,-7.557312E-2,4.88297E-2,2.117147E-2,6.8039554E-1,-6.360951E-1,5.7252926E-1,1.2776446E0,3.9154574E-2,-1.5744086E-2,1.2264916E0,2.9355752E-1,5.0084267E-2,4.0065575E-1,5.327293E-2,2.4581732E-1,-5.1893678E-2,4.3086946E-2,-8.317671E-3,-6.004728E-2,4.4863997E-3,-5.8032412E-2,-1.8507952E-2,-5.474725E-2,4.0299807E-2,-2.2444015E-3,3.9636735E-2,-4.766412E-2,5.443046E-2,2.2084221E-2,1.6910894E-2,5.820502E-2,-6.493737E-2,-2.0036688E-2,4.5864154E-2,-6.0993996E-2,9.962769E-3,4.8361372E-2,-7.130795E-3,-5.2858472E-2,-6.259268E-2,-1.0820403E-2,2.909664E-2,-2.7850622E-2,1.1430774E-2,-2.9865421E-2,-3.790459E-3,4.9558613E-2,3.5288637E-3,-5.8616165E-2,4.179677E-2,-7.2203344E-3,5.2972615E-2,1.0249915E-2,4.3359812E-2,5.257968E-2,3.972141E-2,-1.9886836E-2,-1.6992971E-2,2.8252289E-2,-2.1062834E-2,3.3300105E-2],"categories":[],"categories_nodes":[],"categories_segments":[],"categories_sizes":[],"default_left":[0,0,0,0,0,0,0,0,0,0,0,0,0,0,0,0,0,0,0,0,0,0,0,0,0,0,0,0,0,0,0,0,0,0,0,0,0,0,0,0,0,0,0,0,0,0,0,0,0,0,0,0,0,0,0,0,0,0,0,0,0,0,0,0,0,0,0,0,0,0,0,0,0,0,0,0,0,0,0,0,0,0,0,0,0,0,0,0,0,0,0,0,0,0,0,0,0,0,0,0,0,0,0,0,0,0,0,0,0,0,0,0,0,0,0,0,0,0,0,0,0,0,0,0,0,0,0,0,0,0,0,0,0,0,0,0,0,0,0,0,0,0,0],"id":10,"left_children":[1,3,5,7,9,11,13,15,17,19,21,23,25,27,29,31,33,35,37,39,41,-1,43,45,47,49,51,53,55,57,59,-1,61,63,65,-1,-1,-1,-1,67,69,71,73,75,-1,-1,77,-1,-1,79,81,-1,-1,83,85,87,89,91,-1,93,95,97,99,101,-1,103,-1,-1,-1,-1,-1,105,107,109,111,113,115,117,119,121,123,125,-1,-1,-1,127,129,131,133,-1,-1,135,137,-1,139,-1,141,-1,-1,-1,-1,-1,-1,-1,-1,-1,-1,-1,-1,-1,-1,-1,-1,-1,-1,-1,-1,-1,-1,-1,-1,-1,-1,-1,-1,-1,-1,-1,-1,-1,-1,-1,-1,-1,-1,-1,-1,-1,-1,-1,-1,-1,-1],"loss_changes":[8.762114E3,2.7593604E2,1.1745154E3,1.9374023E1,7.2964154E2,2.2381691E2,2.616504E1,8.251953E0,2.651234E1,1.4380441E2,8.156726E1,1.7729424E1,6.417926E1,1.6641174E1,1.13515625E1,2.9501953E0,2.0782928E1,1.2129607E0,2.1964836E-1,7.859825E0,8.693557E1,0E0,3.2180298E1,2.0332321E1,1.2881546E0,5.1764557E1,3.9425468E-1,2.7331486E1,2.5633545E0,4.0478516E0,1.0833481E1,0E0,6.2662354E0,1.616295E1,1.1481354E1,0E0,0E0,0E0,0E0,1.5513093E1,2.5460281E0,5.9187786E1,8.219131E0,1.1183228E1,0E0,0E0,1.6974579E1,0E0,0E0,3.8086914E1,2.8254095E1,0E0,0E0,3.943596E-1,1.8203974E1,1.1283188E0,3.0076413E0,2.932953E0,0E0,5.3920593E0,1.1291187E1,1.4786584E1,4.454773E0,4.189727E0,0E0,1.3723053E1,0E0,0E0,0E0,0E0,0E0,2.4781908E1,2.3426067E1,1.2880081E1,1.4604034E0,1.6912842E0,8.715166E1,1.2375879E0,4.4306183E0,3.194336E0,1.228799E1,2.419759E1,0E0,0E0,0E0,8.685535E0,1.3914623E1,2.5154786E0,3.1354675E0,0E0,0E0,2.5796509E0,3.544791E0,0E0,2.9744754E0,0E0,1.4724365E1,0E0,0E0,0E0,0E0,0E0,0E0,0E0,0E0,0E0,0E0,0E0,0E0,0E0,0E0,0E0,0E0,0E0,0E0,0E0,0E0,0E0,0E0,0E0,0E0,0E0,0E0,0E0,0E0,0E0,0E0,0E0,0E0,0E0,0E0,0E0,0E0,0E0,0E0,0E0,0E0,0E0,0E0,0E0,0E0,0E0,0E0],"parents":[2147483647,0,0,1,1,2,2,3,3,4,4,5,5,6,6,7,7,8,8,9,9,10,10,11,11,12,12,13,13,14,14,15,15,16,16,17,17,18,18,19,19,20,20,22,22,23,23,24,24,25,25,26,26,27,27,28,28,29,29,30,30,32,32,33,33,34,34,39,39,40,40,41,41,42,42,43,43,46,46,49,49,50,50,53,53,54,54,55,55,56,56,57,57,59,59,60,60,61,61,62,62,63,63,65,65,71,71,72,72,73,73,74,74,75,75,76,76,77,77,78,78,79,79,80,80,81,81,85,85,86,86,87,87,88,88,91,91,92,92,94,94,96,96],"right_children":[2,4,6,8,10,12,14,16,18,20,22,24,26,28,30,32,34,36,38,40,42,-1,44,46,48,50,52,54,56,58,60,-1,62,64,66,-1,-1,-1,-1,68,70,72,74,76,-1,-1,78,-1,-1,80,82,-1,-1,84,86,88,90,92,-1,94,96,98,100,102,-1,104,-1,-1,-1,-1,-1,106,108,110,112,114,116,118,120,122,124,126,-1,-1,-1,128,130,132,134,-1,-1,136,138,-1,140,-1,142,-1,-1,-1,-1,-1,-1,-1,-1,-1,-1,-1,-1,-1,-1,-1,-1,-1,-1,-1,-1,-1,-1,-1,-1,-1,-1,-1,-1,-1,-1,-1,-1,-1,-1,-1,-1,-1,-1,-1,-1,-1,-1,-1,-1,-1,-1],"split_conditions":[9.8853326E-1,2.7711982E-1,1.7184468E-1,4.5571136E-1,3.0708647E-1,3.3861555E-2,2.5468695E-1,3.8461536E-2,1.9829415E-2,1E0,1.6563619E-2,6.5344125E-1,8.911328E-3,5.7258874E-1,3.0708647E-1,2.1705455E-1,1.605895E-2,1.28E-16,9.536104E-1,1.9829415E-2,3.021321E-1,5.063805E-2,1E0,9.9702305E-1,9.610005E-1,8.332161E-2,3.9291907E-2,8.048202E-2,9.4961786E-1,1.327939E-1,1.0003118E-11,-6.4983785E-2,7.501587E-1,6.25E-2,2.2429934E-1,1.1477323E-2,5.2555904E-2,-6.0708743E-2,-2.7487025E-2,3.596011E-2,5.120237E-1,7.1683455E-1,3.060169E-1,1E0,4.6898868E-2,4.7326155E-2,2.4021165E-1,5.4446783E-2,1.1597838E-2,6.25E-2,8.8505524E-1,1.698166E-2,5.1389545E-2,3.2796652E-13,4.5697585E-1,5.8743935E-3,1.21231996E-1,9.5404977E-1,5.435181E-2,9.3606925E-1,9.2665546E-2,4.8637304E-1,2.3345277E-2,6.2142856E-2,4.5840353E-2,8.144143E-1,-6.5946564E-2,-5.3886503E-2,3.922264E-2,-6.422753E-2,-1.2925174E-2,9.999968E-1,8.5375935E-1,7.816293E-1,2.1035598E-1,9.6819806E-1,1.6648509E-2,5.8430105E-1,1.28E-16,1.9460194E-1,1.28E-16,9.65E-16,-7.557312E-2,4.88297E-2,2.117147E-2,1.30736E-1,1.4376369E-13,2.7443212E-3,2.7706978E-1,3.9154574E-2,-1.5744086E-2,5.42834E-1,8.108351E-2,5.0084267E-2,9.512003E-2,5.327293E-2,2.3957075E-1,-5.1893678E-2,4.3086946E-2,-8.317671E-3,-6.004728E-2,4.4863997E-3,-5.8032412E-2,-1.8507952E-2,-5.474725E-2,4.0299807E-2,-2.2444015E-3,3.9636735E-2,-4.766412E-2,5.443046E-2,2.2084221E-2,1.6910894E-2,5.820502E-2,-6.493737E-2,-2.0036688E-2,4.5864154E-2,-6.0993996E-2,9.962769E-3,4.8361372E-2,-7.130795E-3,-5.2858472E-2,-6.259268E-2,-1.0820403E-2,2.909664E-2,-2.7850622E-2,1.1430774E-2,-2.9865421E-2,-3.790459E-3,4.9558613E-2,3.5288637E-3,-5.8616165E-2,4.179677E-2,-7.2203344E-3,5.2972615E-2,1.0249915E-2,4.3359812E-2,5.257968E-2,3.972141E-2,-1.9886836E-2,-1.6992971E-2,2.8252289E-2,-2.1062834E-2,3.3300105E-2],"split_indices":[0,2,2,5,2,12,2,5,6,1,11,8,1,8,2,2,12,1,6,6,2,0,5,0,8,2,12,11,8,12,1,0,11,5,6,0,0,0,0,0,12,8,2,7,0,0,11,0,0,5,8,0,0,1,8,11,12,8,0,2,12,1,12,2,0,11,0,0,0,0,0,11,11,11,12,0,1,8,1,4,1,1,0,0,0,12,1,11,12,0,0,8,12,0,11,0,12,0,0,0,0,0,0,0,0,0,0,0,0,0,0,0,0,0,0,0,0,0,0,0,0,0,0,0,0,0,0,0,0,0,0,0,0,0,0,0,0,0,0,0,0,0,0],"split_type":[0,0,0,0,0,0,0,0,0,0,0,0,0,0,0,0,0,0,0,0,0,0,0,0,0,0,0,0,0,0,0,0,0,0,0,0,0,0,0,0,0,0,0,0,0,0,0,0,0,0,0,0,0,0,0,0,0,0,0,0,0,0,0,0,0,0,0,0,0,0,0,0,0,0,0,0,0,0,0,0,0,0,0,0,0,0,0,0,0,0,0,0,0,0,0,0,0,0,0,0,0,0,0,0,0,0,0,0,0,0,0,0,0,0,0,0,0,0,0,0,0,0,0,0,0,0,0,0,0,0,0,0,0,0,0,0,0,0,0,0,0,0,0],"sum_hessian":[6.094668E3,2.7400518E3,3.354616E3,1.7412938E3,9.9875793E2,3.8206955E2,2.9725466E3,1.72226E3,1.9033745E1,3.216385E2,6.7711945E2,8.216291E1,2.9990662E2,1.6046259E2,2.812084E3,1.4886018E3,2.3365823E2,6.671E0,1.2362744E1,4.4760853E1,2.7687762E2,9.833548E0,6.672859E2,3.824427E1,4.391864E1,2.873068E2,1.2599841E1,7.549224E1,8.4970345E1,2.6230264E3,1.8905757E2,1.3411367E3,1.4746506E2,1.2049868E1,2.2160837E2,2.8043733E0,3.8666267E0,8.72242E0,3.6403253E0,1.0043792E1,3.471706E1,1.295198E2,1.4735782E2,6.636342E2,3.651724E0,1.6455114E1,2.1789158E1,4.1881958E1,2.0366826E0,1.8638785E2,1.00918945E2,2.327754E0,1.0272087E1,3.5247528E1,4.0244713E1,8.050775E1,4.462596E0,3.419019E2,2.2811245E3,1.4498593E2,4.407164E1,1.0078613E1,1.3738644E2,6.952825E0,5.0970426E0,9.450063E1,1.2710774E2,6.2664413E0,3.7773504E0,3.2282703E1,2.4343562E0,8.613367E1,4.3386135E1,8.5041626E1,6.23162E1,5.31876E2,1.3175821E2,7.371759E0,1.4417399E1,1.6187921E2,2.4508629E1,8.946847E1,1.1450472E1,3.1586382E1,3.6611464E0,1.8524508E1,2.1720203E1,5.2981405E0,7.520961E1,2.2487955E0,2.2138002E0,3.3747516E2,4.426708E0,1.3549773E2,9.488204E0,1.3613101E1,3.0458538E1,7.1372504E0,2.9413626E0,3.2563713E0,1.3413008E2,2.0693228E0,4.8835025E0,2.4113943E1,7.038669E1,4.369029E1,4.2443382E1,4.7984304E0,3.8587704E1,3.555372E1,4.9487904E1,2.706575E0,5.9609623E1,5.291756E2,2.700398E0,1.28258E1,1.1893241E2,3.0601113E0,4.3116474E0,6.3373237E0,8.080075E0,1.5929138E2,2.587842E0,8.38365E0,1.6124979E1,4.107835E1,4.839012E1,8.0309105E0,1.0493598E1,1.2006655E1,9.713548E0,3.0991776E0,2.198963E0,7.154597E1,3.663639E0,1.3436174E2,2.0311342E2,2.280233E0,2.1464753E0,2.370114E0,7.1180897E0,1.3119005E1,1.7339533E1],"tree_param":{"num_deleted":"0","num_feature":"45","num_nodes":"143","size_leaf_vector":"1"}},{"base_weights":[4.1040904E-3,-1.2809625E0,1.0686915E0,-1.4469551E0,5.5478835E-1,-5.665651E-1,1.2767376E0,-1.4829677E0,7.5192004E-1,-1.2464895E0,8.875435E-1,5.529767E-1,-1.0180537E0,8.637858E-1,1.300641E0,4.4054374E-2,-1.4916458E0,1.2425681E0,-8.810628E-1,2.2343328E-2,-1.3846067E0,9.991893E-1,-7.5165296E-1,4.8486074E-3,1.1815152E0,-1.1071804E0,5.7479244E-1,5.866224E-1,1.1255149E0,1.31966E0,1.025536E0,-1.5193806E0,-1.1341406E0,1.3504093E0,-2.3110912E-3,-3.2348272E-1,-5.4715708E-2,-1.5256858E0,-4.6221712E-1,3.6025277E-1,1.1245812E0,1.7165376E-2,-1.0985725E0,9.277243E-1,-5.143977E-1,1.2430615E0,4.2372444E-3,-1.2225579E0,1.7014346E-1,4.7615036E-2,-4.5659613E-2,-3.2916093E-1,9.9989593E-1,5.2161176E-2,7.180436E-1,5.5797756E-1,1.3232232E0,1.162993E0,5.788522E-1,-1.5231667E0,-6.025177E-1,-6.381091E-2,-3.7757787E-1,5.645219E-2,1.6941277E-2,1.7656377E-2,-3.625061E-2,-1.6034969E0,-1.5107841E-2,2.5185866E-2,-5.248649E-2,-4.777153E-1,7.5766665E-1,5.3605266E-2,9.573484E-1,-5.515488E-2,-1.02786925E-2,8.529258E-2,4.9838576E-2,2.396777E-1,-1.1916573E0,5.277403E-2,4.0566833E-3,-7.5511897E-1,-1.3797914E0,5.3903468E-2,-4.9731913E-1,-8.22981E-1,4.531793E-2,5.252687E-2,7.529742E-2,1.4973828E-1,4.8860114E-2,-4.8164997E-2,5.0054565E-2,1.1984986E0,5.3660862E-2,1.2173874E0,3.1584993E-1,9.6559113E-1,-9.5623635E-2,-5.226996E-2,-6.1583545E-2,-5.7434395E-2,1.9655973E-2,-5.3165242E-2,2.525029E-2,-6.725616E-2,-2.3291674E-2,3.0631868E-2,-3.647954E-2,1.0357091E-2,5.2376926E-2,1.1182374E-2,4.6750963E-2,4.1202877E-2,-2.643163E-2,-3.5991713E-2,3.2601703E-2,-6.739463E-2,-2.4125079E-2,-4.4655748E-2,1.2287008E-2,-2.2968218E-2,-5.727452E-2,2.3015894E-2,-4.373226E-2,-4.6656284E-2,1.0100267E-2,4.123007E-2,-4.283216E-2,2.6655035E-2,-3.3789072E-2,4.85219E-2,-3.0379242E-3,2.4452133E-2,5.1578384E-2,-2.3302047E-2,2.8279804E-2,4.8727006E-2,9.006174E-3,-4.6566494E-2,4.1981205E-2],"categories":[],"categories_nodes":[],"categories_segments":[],"categories_sizes":[],"default_left":[0,0,0,0,0,0,0,0,0,0,0,0,0,0,0,0,0,0,0,0,0,0,0,0,0,0,0,0,0,0,0,0,0,0,0,0,0,0,0,0,0,0,0,0,0,0,0,0,0,0,0,0,0,0,0,0,0,0,0,0,0,0,0,0,0,0,0,0,0,0,0,0,0,0,0,0,0,0,0,0,0,0,0,0,0,0,0,0,0,0,0,0,0,0,0,0,0,0,0,0,0,0,0,0,0,0,0,0,0,0,0,0,0,0,0,0,0,0,0,0,0,0,0,0,0,0,0,0,0,0,0,0,0,0,0,0,0,0,0,0,0,0,0],"id":11,"left_children":[1,3,5,7,9,11,13,15,17,19,21,23,25,27,29,-1,31,33,35,-1,37,39,41,43,45,47,49,51,53,55,57,59,61,63,-1,65,-1,67,69,71,73,-1,75,77,79,81,-1,83,85,-1,-1,87,89,-1,91,93,95,97,99,101,103,-1,105,-1,-1,-1,-1,107,-1,-1,-1,109,111,-1,113,-1,-1,115,-1,117,119,-1,-1,121,123,-1,125,127,-1,-1,129,131,-1,-1,-1,133,-1,135,137,139,141,-1,-1,-1,-1,-1,-1,-1,-1,-1,-1,-1,-1,-1,-1,-1,-1,-1,-1,-1,-1,-1,-1,-1,-1,-1,-1,-1,-1,-1,-1,-1,-1,-1,-1,-1,-1,-1,-1,-1,-1,-1,-1],"loss_changes":[8.179521E3,8.2635156E2,1.1132803E3,1.9793555E2,1.3611523E2,1.8748376E2,2.7298828E1,5.651465E1,3.370465E1,9.706711E0,3.569496E1,3.66818E1,3.8151123E1,1.09171295E1,1.2750488E1,0E0,2.2177246E1,4.655979E0,2.0841303E0,0E0,3.4314308E0,1.3797394E1,5.7328544E0,2.8386955E1,3.021965E0,3.720053E1,1.6769316E1,3.1026829E1,4.8277817E0,6.019043E0,1.032901E1,6.709961E0,6.1881866E1,8.7857056E-1,0E0,3.1365554E0,0E0,1.7302322E0,6.4146714E0,1.0709726E1,3.863205E0,0E0,1.8758812E0,5.488617E0,1.9680632E1,3.8008194E0,0E0,1.5630859E1,1.7684803E1,0E0,0E0,1.9560825E1,1.6008862E1,0E0,7.5149164E0,1.834444E1,3.949707E0,5.8226166E0,1.19162655E1,5.694336E0,1.0874422E1,0E0,6.755972E1,0E0,0E0,0E0,0E0,8.7719727E-1,0E0,0E0,0E0,6.3838806E0,5.417061E0,0E0,1.2102158E1,0E0,0E0,5.6643147E0,0E0,1.2948051E1,4.6029396E0,0E0,0E0,2.3527176E1,6.131714E0,0E0,9.902777E0,7.754092E0,0E0,0E0,1.7893948E1,7.787486E0,0E0,0E0,0E0,6.4337463E0,0E0,4.6671906E0,3.864348E0,4.9643097E0,2.2296366E1,0E0,0E0,0E0,0E0,0E0,0E0,0E0,0E0,